tree
version=v3
num_class=1
num_tree_per_iteration=1
label_index=0
max_feature_idx=8
objective=binary sigmoid:1
feature_names=char_a platform_a char_b platform_b game_floor value_a deviation_a value_b deviation_b
feature_infos=-1:1:0:27:9:5:20:24:25:26:11:12:18:19:21:2:13:6:4:23:7:17:16:22:3:14:15:10:8 -1:2:0:1 -1:1:27:0:9:5:20:24:25:26:12:19:11:18:2:21:6:13:4:7:17:23:16:22:3:14:8:10:15 -1:2:0:1 -1:10:9:8:7:6:5:4:3:2:1 [584.10674003051463:2365.7890328969097] [25.700287971964567:350] [552.83199963820141:2399.6445467547428] [25.566505895255375:350]
tree_sizes=7293 7451 7436 7571 7494 7453 7540 7579 7425 7461 7409 7399 7535 7473 7372 7383 7539 7402 7498 7501 7514 7516 7462 7508 7445 7483 7404 7513 7444 7486 7475 7325 7399 7628 7619 7545 7305 7503 7449 7497 7487 7446 7499 7551 7510 7475 7460 7434 7278 7481 7469 7384 7324 7410 7487 7437 7366 7520 7473 7473 7370 7474 7486 7464 7396 7485 7356 7441 7374 7410 7424 7523 7423 7510 7372 7339 7321 7438 7379 7538 7373 7362 7478 7381 7372 7440 7393 7356 7426 7410 7396 7424 7419 7434 7384 7440 7423 7394 7387 7484

Tree=0
num_leaves=70
num_cat=42
split_feature=0 8 6 8 4 4 8 6 8 0 6 6 8 4 4 0 3 0 8 0 1 0 4 6 0 4 0 0 8 6 0 0 6 0 0 4 6 0 0 0 8 0 0 4 0 3 8 6 6 4 0 0 0 4 1 0 6 0 4 6 8 4 8 6 8 4 6 0 8
split_gain=203.156 113.23 72.5935 85.4473 66.0541 50.0485 37.0979 35.4858 36.0959 34.2363 30.247 29.4487 26.5902 25.293 23.6666 45.314 32.5379 21.754 23.4022 20.605 20.4694 19.1646 19.0396 17.2153 16.4776 18.5319 21.7203 16.3119 16.0164 15.9814 18.4052 15.2075 18.0416 15.1871 14.8565 14.6431 14.3634 13.7217 13.1156 12.9194 12.7033 20.444 17.9143 17.7492 12.5845 12.1534 11.6865 11.6847 11.6545 11.2884 11.0874 11.0499 10.7917 11.31 10.4604 10.4447 17.1869 10.2646 16.1868 11.6624 10.1191 11.0796 10.3844 9.89815 9.89498 9.87421 9.72856 19.459 10.6613
threshold=0 164.20992415872374 153.6487588498714 135.25841820555601 1 2 193.46904588036926 254.75049263957925 45.736464866256576 3 234.00312477425291 343.30746971232418 284.31457985804462 4 5 6 7 8 180.9005917766564 9 10 11 12 100.12796492581442 13 14 15 16 34.621787552152213 41.527800621751332 17 18 44.669538074796343 19 20 21 45.38132724959052 22 23 24 76.093837082568811 25 26 27 28 29 290.23316570051321 55.576413912010786 37.183075892424689 30 31 32 33 34 35 36 71.339296782578074 37 38 210.49005729956446 91.428483299239602 39 95.368053241732909 33.659608494628152 77.098634784950079 40 110.24535027161308 41 165.42259091821697
decision_type=1 2 2 2 9 9 2 2 2 1 2 2 2 9 9 1 1 1 2 1 1 1 9 2 1 9 1 1 2 2 1 1 2 1 1 9 2 1 1 1 2 1 1 9 1 1 2 2 2 9 1 1 1 9 1 1 2 1 9 2 2 9 2 2 2 9 2 1 2
left_child=1 7 3 14 9 17 11 8 13 47 12 22 21 33 15 36 39 18 -3 64 57 -7 38 -21 -22 55 -27 -9 -18 37 -31 32 -6 -1 -12 44 48 -30 -4 -17 42 -42 43 54 -8 -33 -19 -5 -2 -29 -14 -15 65 -54 -24 -26 63 58 -10 -59 61 -28 -62 -57 -16 -37 -11 68 -68
right_child=2 5 6 4 31 10 35 27 20 66 34 -13 50 51 19 16 28 46 -20 23 24 -23 40 -25 25 26 60 49 29 30 -32 45 -34 -35 -36 52 -38 -39 -40 -41 41 -43 -44 -45 -46 -47 -48 -49 -50 -51 -52 -53 53 -55 -56 56 -58 59 -60 -61 62 -63 -64 -65 -66 -67 67 -69 -70
leaf_value=0.020353142180020281 0.066465283200263597 0.022037781543913774 0.043423346262685555 -0.01230562976052773 -0.011763142591480438 0.0051895982824769205 0.073905687545662097 0.047987172131493068 0.040809252767382925 -0.0010206422900690161 0.016975122894727884 0.057813769966852994 -0.023694634836038085 0.035917341613444009 0.030719200929195539 0.040258574194689298 0.082184176056008029 0.012397042337626661 -0.020090099293413904 0.030323493746491889 0.024106097108213209 0.020361676796977844 0.065922790662069033 0.04080299356170819 0.025089844790627588 0.024407665650251719 0.027710316061800425 0.038040976541208263 0.056603334695126961 0.044939962341704318 0.026912595609199719 0.026420232507638926 0.036874346221285131 0.062750264989689358 0.039749751361317864 0.061165828143019345 0.069851707332282159 -0.00016668884577228718 0.025015201390632149 -0.04065882005176126 0.052789298342565003 0.035410255522257954 0.063997530426211729 0.054236133721435056 0.033346275359906481 0.0097745839222963711 -0.013469692814913711 0.036882005306570279 0.0054051511807948344 0.011811933121349788 0.0035975266395662162 0.011504552867653655 0.032569343043038317 0.018348683611136833 0.0022580299246840185 -0.062904205383846598 0.021980006282060899 0.061245585520479685 0.0015618604874701805 -0.016991237045807808 -0.032383714492146179 0.0062802926698306734 0.0028342837869026229 0.0021429575808774061 0.02038194465845489 0.030575210307664642 0.070604683297035578 0.003437509039155854 0.023700103698977501
leaf_weight=106.73105795681477 56.489974468946457 154.47258505225182 567.39930108189583 53.740462437272072 79.735848918557167 1297.7696789503098 121.72839631140232 847.09966139495373 339.18980245292187 1593.967111453414 514.40870556235313 1095.0556555241346 231.70887757837772 490.66291983425617 1632.2103242576122 28.494942873716354 74.736736133694649 863.34677794575691 900.8401238322258 4374.4736423939466 8123.5582754015923 2373.3287946134806 30.994499266147614 2443.0664179623127 3122.1958897858858 987.32477501034737 372.43390247225761 375.93328142166138 45.991837620735168 1408.2500714957714 953.83071935176849 2028.3900124579668 1752.6889423727989 453.66948522627354 622.63949735462666 150.72325046360493 583.14650635421276 195.96522116661072 1174.7915044426918 68.487845152616501 962.82912236452103 2358.8313675373793 612.89122742414474 235.45821216702461 211.71242643892765 559.65067626535892 218.9611399769783 476.66540403664112 69.987578988075256 275.45111444592476 619.14011840522289 284.44951745867729 953.58076371252537 1326.014666184783 154.22262941300869 24.745608285069466 1025.0680765360594 233.45856705307961 140.47506925463676 20.746318057179451 90.483941406011581 700.37570115923882 1120.8010863661766 428.17401002347469 2140.1201831996441 335.19051222503185 66.488200038671494 692.12716506421566 178.71828205883503
leaf_count=427 226 618 2270 215 319 5192 487 3389 1357 6377 2058 4381 927 1963 6530 114 299 3454 3604 17501 32500 9495 124 9774 12491 3950 1490 1504 184 5634 3816 8115 7012 1815 2491 603 2333 784 4700 274 3852 9437 2452 942 847 2239 876 1907 280 1102 2477 1138 3815 5305 617 99 4101 934 562 83 362 2802 4484 1713 8562 1341 266 2769 715
internal_value=0.0266447 0.0201153 0.0318624 0.0285653 0.0199302 0.00992249 0.0387737 0.0241741 0.0229475 0.00867133 0.0149177 0.0427147 0.0112309 0.0387682 0.0331556 0.0402947 0.0344534 -0.00310748 -0.0135428 0.0307891 0.0216845 0.0149226 0.040003 0.0340679 0.0209352 0.0176774 0.01192 0.0389617 0.0365416 0.0352316 0.0377389 0.0277665 0.0347139 0.0547068 0.0294766 0.0296269 0.0627177 0.0107544 0.0310719 -0.0224201 0.0435268 0.0405529 0.0532475 0.0364641 0.0490982 0.0228354 0.0073423 0.0318011 0.0326771 0.0268929 -0.00469737 0.0268796 0.0271961 0.0242972 0.0136152 0.0217949 0.0148915 0.0380151 0.0290377 0.0537925 0.00655542 0.01354 0.000203471 -0.00141095 0.0248594 0.0405687 0.00382352 0.0118177 0.0360354
internal_weight=0 27359.6 31848.8 21557.4 7482.17 7796.62 10291.4 19563 18064.5 3061.71 5659 7192.47 4521.95 1335.51 14075.3 3485.38 2775.76 2137.62 1055.31 10589.9 16729 3671.1 6097.42 6817.54 15995.2 7871.6 3271.42 1498.48 2678.77 2604.04 2362.08 4420.47 1832.42 560.401 1137.05 3098.95 709.624 241.957 1742.19 96.9828 4355.23 3321.66 1033.57 420.675 333.441 2588.04 1082.31 530.406 126.478 651.384 850.849 775.112 2765.51 2279.6 185.217 4600.18 1477.99 733.87 479.665 254.205 2284.09 1072.81 1211.29 452.92 3772.33 485.914 2531.3 937.334 245.206
internal_count=236876 109458 127418 86245 29934 31192 41173 78266 72271 12249 22640 28775 18091 5343 56311 13944 11105 8552 4222 42367 66928 14687 24394 27275 63992 31492 13088 5995 10717 10418 9450 17685 7331 2242 4549 12398 2839 968 6970 388 17424 13289 4135 1683 1334 10354 4330 2122 506 2606 3404 3101 11064 9120 741 18404 5913 2936 1919 1017 9138 4292 4846 1812 15092 1944 10127 3750 981
cat_boundaries=0 1 2 3 4 5 6 7 8 9 10 11 12 13 14 15 16 17 18 19 20 21 22 23 24 25 26 27 28 29 30 31 32 33 34 35 36 37 38 39 40 41 42
cat_threshold=164422754 188 62 135440 1026 1024 131588 2 138444834 2099213 2 139198464 388 17089602 1440 12591104 25976834 69212169 66449 57408 134766624 1024 33619968 1053568 33624448 1118344 68161545 576 131729 4 1384 138444864 155983904 2101264 704 1 134742048 17064034 1928 80 518 644
is_linear=0
shrinkage=1


Tree=1
num_leaves=70
num_cat=41
split_feature=5 5 4 5 6 5 6 4 5 5 2 2 4 8 5 2 5 5 5 2 5 5 0 2 0 2 5 6 2 2 4 0 6 4 0 0 8 0 2 0 8 6 0 8 6 6 4 2 0 8 0 8 0 0 0 0 0 0 0 0 5 0 2 0 6 2 2 0 2
split_gain=3250.94 1260.13 727.447 476.278 305.133 226.742 201.327 176.912 150.127 138.375 119.614 117.832 111.27 100.401 74.491 64.6669 60.6084 59.5763 52.8423 51.7622 51.3786 49.0616 47.3042 43.3307 41.5994 41.0202 40.0346 39.984 38.6609 38.0508 36.0315 34.3257 33.6559 33.5847 34.4796 33.5014 31.8183 33.1148 31.782 30.2234 29.0494 28.8012 33.777 28.3567 28.2758 27.8476 27.3998 27.3562 26.6255 26.3527 26.1075 25.2299 25.151 24.531 24.2541 24.2048 24.1627 24.0266 23.6764 23.2278 22.6496 22.5231 21.7244 21.5485 21.339 21.269 21.1227 21.0463 20.8378
threshold=1568.932905408835 1278.2095381849927 0 1788.5684642843828 230.57766259459919 1421.4952258166024 196.72744824146019 1 1051.6214951509976 1441.9687267442803 2 3 4 133.58145910305407 1898.9862801156403 5 1662.2157865084641 1461.0904296037022 1405.1743580383361 6 1129.0216289445716 1648.1644098908603 7 8 9 10 1175.9015071857104 80.389186740018729 11 12 13 14 85.600596921367057 15 16 17 213.92132485165533 18 19 20 278.05572723460483 71.824187067956331 21 244.94981958725592 137.87976977452635 96.57798744270346 22 23 24 197.153525600291 25 133.58145910305407 26 27 28 29 30 31 32 33 1518.9491132759829 34 35 36 187.61657393147971 37 38 39 40
decision_type=2 2 9 2 2 2 2 9 2 2 1 1 9 2 2 1 2 2 2 1 2 2 1 1 1 1 2 2 1 1 9 1 2 9 1 1 2 1 1 1 2 2 1 2 2 2 9 1 1 2 1 2 1 1 1 1 1 1 1 1 2 1 1 1 2 1 1 1 1
left_child=1 7 5 6 11 23 10 20 49 -6 16 18 22 17 28 41 54 30 -4 31 64 36 38 35 -18 55 63 -16 45 50 48 -14 59 34 -15 -3 37 66 -10 -23 60 -7 -43 -36 -40 56 57 -35 -13 -9 -11 -28 -34 -27 -2 -8 -5 -19 -20 -17 -31 -42 67 -21 -1 -41 -12 -32 -24
right_child=3 2 4 14 9 15 25 8 12 29 21 13 19 33 27 32 24 46 58 26 -22 39 68 -25 -26 53 51 -29 -30 40 62 -33 52 47 43 -37 -38 -39 44 65 61 42 -44 -45 -46 -47 -48 -49 -50 -51 -52 -53 -54 -55 -56 -57 -58 -59 -60 -61 -62 -63 -64 -65 -66 -67 -68 -69 -70
leaf_value=0.13418108742820048 0.016702688864190181 0.0092907973221877348 0.016124280518533731 -0.0023155014315392655 0.054287239822124293 0.023773103729532244 -0.088858929032828049 0.095669432601316509 -0.030537930581537521 0.0051442249242583367 0.0123116532853289 -0.0043790442747196909 0.076968684344685748 -0.0034342195904362087 -0.12133433096722329 0.055854213463107698 -0.041446841451926265 -0.024861128379759154 0.0066510354374405755 0.028988574855761159 0.076163477894317003 -0.027655661424471213 0.080231847291072911 0.05934685836334657 -0.011957787759543568 -0.0087704457028742328 0.039546090904250861 -0.077620226471997997 -0.065875539341405095 0.012102622646394513 0.0070176470868727765 0.045448018497096336 0.033391322800099273 -0.021394739641837305 -0.018955769877836554 0.049331914131837754 -0.043147962467415736 -0.02534071446444533 -0.0069106630423994468 -0.028727997681907286 0.019701385081222558 0.015575728770810282 -0.0086998439063670548 -0.051525794574880095 0.042537496839415767 -0.021525212422632247 -0.035415812615063318 -0.044561898439446052 0.019157837025995352 0.051233230109066899 0.037110023748609514 0.013744965189466066 0.010564086757701416 -0.045492187660720849 -0.0047721858148670904 -0.050118621118116873 -0.081127677123212741 -0.0041687111234844643 -0.0087045819638778329 0.028712203980255799 -0.043435439402226758 -0.040570559369503045 -0.0018966198923929562 0.06935206530335479 0.052488150137030079 -0.053385648637064992 -0.013835002068201664 -0.037645091455326359 0.025716307317237758
leaf_weight=246.6566701233387 670.0764404386282 390.13594983518124 2164.5951377600431 60.985467150807381 1073.4434268027544 1003.2224323600531 405.65221717953682 621.31416538357735 260.69427353143692 421.09057193994522 445.89532555639744 742.36645199358463 824.76940022408962 1119.051263704896 285.93713772296906 626.08754412829876 715.87638914585114 887.59212718904018 1584.6825277507305 252.69167193770409 1177.3314605951309 2029.7462757080793 86.228865474462509 2329.9771802723408 1490.1058233678341 224.16537754237652 870.25901970267296 780.06449028849602 1666.3446028977633 1045.6888598650694 147.95642654597759 841.08949010074139 895.893155798316 1032.8864362835884 1053.366430580616 486.57780776917934 565.92821776866913 2165.7817225903273 297.45338402688503 601.37699338793755 79.235319077968597 1133.8288360983133 1140.4471427202225 358.2169002443552 189.19552753865719 450.64326664805412 623.10145282745361 1164.1134662628174 1353.6852932423353 169.97038927674294 698.16762258112431 671.38999952375889 1103.1848239004612 1809.7620309442282 2310.2443175315857 476.85237312316895 172.20558136701584 1534.3940862268209 2707.0262894928455 821.50557447969913 78.976865008473396 236.70978747308254 1735.3517986685038 477.62394006550312 36.736918359994888 1321.7316637039185 957.27127982676029 372.67465205490589 429.14862138032913
leaf_count=987 2681 1561 8660 244 4295 4014 1623 2486 1043 1685 1784 2970 3300 4477 1144 2505 2864 3551 6340 1011 4711 8121 345 9323 5962 897 3482 3121 6667 4185 592 3365 3585 4132 4214 1947 2264 8665 1190 2406 317 4537 4563 1433 757 1803 2493 4657 5416 680 2794 2686 4414 7241 9243 1908 689 6139 10830 3287 316 947 6943 1911 147 5288 3830 1491 1717
internal_value=0 0.0163004 0.00771095 -0.0334898 -0.0023525 0.0301939 -0.0263305 0.0533496 0.0454689 0.0241504 -0.0211036 -0.00753612 0.0393704 -0.0133408 -0.0674201 0.0197895 -0.00918668 -0.00607697 0.00338033 0.0476232 0.0847844 -0.0286986 0.0131527 0.0521051 -0.0217695 -0.0501207 0.0372821 -0.0893458 -0.057475 0.011513 0.00142991 0.0614201 0.0293378 -0.0247344 -0.0166502 0.0318194 -0.0211189 -0.0176257 -0.00300279 -0.0366999 0.000671502 0.0096295 0.00343285 -0.0270296 0.0120655 -0.0355221 -0.0168058 -0.0338165 0.0108405 0.0861244 0.0252358 0.0283097 0.0210141 -0.0415077 9.61199e-05 -0.0687221 -0.0640946 -0.011823 -0.00303942 0.0410354 0.0082026 -0.0261156 -0.0073291 0.0567327 0.123591 -0.0458634 -0.00549785 -0.0250595 0.0361909
internal_weight=0 39597.8 32145.2 19606.6 22214.4 9930.86 16190.5 7452.55 5991.83 3633.31 13274 18581.1 5200.54 12124.8 3416.18 6724.17 5186.3 7397.12 6456.3 3937.82 1460.73 8087.73 1262.72 3206.69 2205.98 2916.43 2271.96 1066 2350.18 2559.87 4352.03 1665.86 3446.67 4727.63 2530.63 876.714 4134.88 3568.95 747.343 3952.85 1440.61 3277.5 2274.28 1411.58 486.649 683.834 3045.09 2197 2096.05 791.285 1119.26 1541.65 1999.08 2033.93 2980.32 882.505 233.191 2421.99 4291.71 1447.59 1124.67 315.945 2255.98 730.316 283.394 1923.11 1403.17 520.631 515.377
internal_count=236876 158431 128613 78445 88877 39736 64777 29818 23973 14539 53108 74338 20807 48508 13668 26905 20750 29595 25830 15755 5845 32358 5052 12831 8826 11669 9090 4265 9403 10244 17412 6665 13791 18913 10124 3508 16543 14279 2990 15815 5765 13114 9100 5647 1947 2736 12183 8789 8386 3166 4479 6168 7999 8138 11924 3531 933 9690 17170 5792 4501 1264 9026 2922 1134 7694 5614 2083 2062
cat_boundaries=0 1 2 3 4 5 6 7 8 9 10 11 12 13 14 15 16 17 18 19 20 21 22 23 24 25 26 27 28 29 30 31 32 33 34 35 36 37 38 39 40 41
cat_threshold=1536 1536 134802593 156082280 6 58067719 239378470 253507619 45094918 140248224 43127568 205562920 166209582 416 102175965 448 37352193 167305285 56104484 2258832 58201631 172165783 464 111151107 21720146 107480162 82642637 2115712 21121412 171221030 4266073 149054486 18074901 43484259 69281180 136194 153117308 88211480 15007812 41951000 151586912
is_linear=0
shrinkage=0.1


Tree=2
num_leaves=70
num_cat=43
split_feature=2 8 0 0 0 2 2 2 4 6 6 2 2 4 4 6 0 4 6 8 0 0 8 2 8 0 6 2 4 2 8 0 8 0 6 0 0 6 2 8 0 0 0 0 4 2 4 3 6 8 8 0 0 4 6 2 0 6 0 8 6 6 2 2 6 4 6 8 6
split_gain=279.034 134.311 84.8209 77.1306 48.6003 48.079 41.6903 40.968 37.5595 34.5933 33.9571 30.897 27.3247 25.6421 25.6406 24.6325 23.4137 21.9977 23.775 21.9389 22.5195 21.4309 20.8184 19.553 19.4922 19.0905 18.2672 16.8646 21.3735 15.5684 15.0201 14.9627 15.2237 14.9544 14.9146 14.626 14.5417 24.8685 15.7535 15.2928 14.1994 13.8599 13.3224 13.1134 12.9745 17.5677 12.7866 12.5411 18.3531 12.5335 12.4145 21.4559 12.7691 12.3561 18.2483 17.484 15.663 12.3303 12.7496 12.484 12.3165 12.2666 14.1622 12.1513 12.1342 12.0963 13.5767 12.6827 11.8487
threshold=0 164.20992415872374 1 2 3 4 5 6 7 220.94481824452711 80.389186740018729 8 9 10 11 343.30746971232418 12 13 94.314869328793932 43.591446268472829 14 15 47.028315812844191 16 81.758432893582565 17 49.90154065435059 18 19 20 41.0341139823338 21 67.933646779301696 22 58.173162776727168 23 24 38.480949881426753 25 154.10779319172261 26 27 28 29 30 31 32 33 126.05698211773614 45.736464866256576 92.572371378679406 34 35 36 102.59227995276551 37 38 112.91968399542277 39 258.21062315475928 343.30746971232418 162.59750555570483 40 41 179.34772620923172 42 84.058173829897541 105.45473705891058 73.311614370751883
decision_type=1 2 1 1 1 1 1 1 9 2 2 1 1 9 9 2 1 9 2 2 1 1 2 1 2 1 2 1 9 1 2 1 2 1 2 1 1 2 1 2 1 1 1 1 9 1 9 1 2 2 2 1 1 9 2 1 1 2 1 2 2 2 1 1 2 9 2 2 2
left_child=4 3 8 7 27 15 13 60 11 16 -9 -3 21 26 -8 19 29 36 50 23 44 -10 -18 41 -22 -16 -4 57 -29 49 -31 32 -30 -17 -13 -15 37 -6 -39 -38 -28 -5 -11 -25 45 -21 -26 48 -24 -7 51 -19 -52 55 -55 -49 -56 59 -59 -1 -2 -27 -63 -36 -42 -54 67 -67 -14
right_child=1 2 6 5 17 9 14 10 12 42 -12 34 68 35 25 33 22 18 -20 20 24 -23 47 43 46 61 40 28 31 30 -32 -33 -34 -35 63 -37 39 38 -40 -41 64 -43 -44 -45 -46 -47 -48 53 -50 -51 52 -53 65 54 56 -57 -58 58 -60 -61 -62 62 -64 -65 -66 66 -68 -69 -70
leaf_value=0.0052365003596334158 -0.0038000581536488647 -0.053485666314087743 -0.039747709307306658 0.044436202601353822 -0.082846821185956321 0.027909690064067072 -0.0039790717800766515 0.0015907630085598421 -0.020561182883062176 -0.0035973235224321986 0.016442275302532113 -0.070715865442219042 -0.040596707194223855 0.0055202878580364063 -0.010152116459952051 0.028806475624445861 0.019572098434823222 -0.029949117307449133 0.017947734007416762 -0.0037845842377245472 -0.0081804631219254357 0.001779872921267716 -0.041203659330746621 0.014476469672930323 -0.01457841294157408 -0.041670274202241037 0.00062982222444355265 0.0086809116578219318 0.050871966205436547 -0.045974380513696927 -0.0011977414427596902 -0.023494648739197897 -0.0060948055036364026 -0.0066897518250910787 -0.0019337140632265247 -0.011507358976446322 0.030368768537646265 0.03242258622453268 -1.2584278588444196e-05 0.014756647752752351 0.011180604247071894 0.0027069489005554282 0.020847425321198969 -0.029686890866956969 -0.0020401752529672561 -0.022792319055013728 -0.028903792195950736 0.015593195355500012 0.013851386156158864 -0.021233016311187194 -0.017280595673798187 0.019469223016086449 0.019074438068862165 -0.015531013341542747 0.022246592801142662 0.00051426574488998853 -0.0049840139518245894 0.022727746432100474 0.0068307911463269689 -0.027712924091587477 0.025415273726966087 0.008320492589957101 -0.030605962714108117 -0.027213668370295641 0.033042070378809726 -0.069678833997176809 -0.062589817381239019 0.012951393574135698 -0.020540206337898399
leaf_weight=2015.1408640742302 3111.9733712077141 561.89472226798534 71.471959069371223 168.09669011831284 28.199343144893646 54.70017072558403 1453.6057443469763 2373.9712562263012 693.13113832473755 285.29718509316444 4379.9783543944359 65.977639600634575 351.10979768633842 745.59045724570751 798.30349543690681 263.94554866850376 596.00401876866817 94.215141639113426 2765.1476163417101 1077.5530809313059 1849.02654504776 1105.4642985016108 167.92294302582741 108.93665313720703 1395.0898130387068 546.30416981875896 712.25175678730011 819.35359682142735 55.475629687309265 78.441828057169914 1666.3340826034546 562.80572962760925 303.86788581311703 208.36841285228729 255.37446813285351 1529.8441659808159 2189.1651849746704 242.28684209287167 378.36935940384865 879.49654892086983 713.13145339488983 158.89601072669029 1054.1271737068892 151.90089789032936 2983.0792163461447 898.13115587830544 1263.386539503932 972.33340167999268 94.696217477321625 1013.2094786167145 431.58528992533684 605.92827443778515 285.06200195848942 960.47017738223076 305.80094090104103 3556.8181394487619 631.95687840878963 941.73311893641949 1137.5548101514578 121.94765986502171 151.31584151089191 133.42026028037071 300.32722236216068 886.79922074079514 394.26452377438545 21.74371962249279 43.481849923729897 127.46979212760925 1828.5287828892469
leaf_count=8065 12458 2249 286 673 113 219 5819 9502 2774 1142 17539 264 1405 2984 3195 1057 2386 377 11071 4312 7400 4424 672 436 5583 2186 2851 3280 222 314 6669 2252 1216 834 1022 6122 8767 970 1515 3521 2855 636 4221 608 11940 3594 5056 3892 379 4055 1727 2425 1141 3843 1224 14235 2529 3770 4553 488 606 534 1202 3549 1579 87 174 510 7318
internal_value=0 -0.00400197 -0.0125117 -0.000505108 0.0121311 -0.00382113 -0.00540362 0.00676291 -0.0216134 0.000668376 0.0112055 -0.0338037 -0.0161184 0.00121299 -0.013911 -0.00869548 -0.00133388 0.0171818 0.0122953 -0.00975222 -0.0109163 -0.00689586 0.00166099 0.00899338 -0.01603 -0.0219616 0.00979139 0.0052538 -0.00301923 -0.00906547 -0.00319252 -0.0133967 0.00262666 0.013615 -0.024286 -0.00592818 0.0228837 0.00886185 0.0131714 0.0258101 0.011791 0.0248407 0.0157695 -0.0113889 -0.00622303 -0.0124966 -0.0215498 6.77939e-05 -0.0213517 -0.0185422 0.00266053 0.0126695 -0.00504585 0.000942983 -0.00581225 0.00377868 0.00407992 0.00866989 0.0141729 0.00335632 -0.0024379 -0.0313814 -0.019146 -0.0218166 0.0187942 0.00623764 -0.0127565 0.000910333 -0.0236625
internal_weight=0 45128.6 13146.8 31981.8 14050 21964.5 7398.52 10017.2 5748.28 11438.1 6753.95 1770.05 3978.23 4166.55 3231.96 10526.4 10098.7 8092.15 4374.63 10054.1 9466.27 1798.6 7286 587.83 4507.5 1778.36 1891.12 5957.88 1741.5 2812.69 1744.78 922.149 359.344 472.314 1208.15 2275.43 3717.52 648.856 620.656 3068.66 1819.65 326.993 1339.42 260.838 4958.76 1975.68 2658.48 6690 262.619 1067.91 1609.49 700.143 909.343 6427.38 1898.23 4529.15 937.758 4216.38 2079.29 2137.09 3263.29 980.052 433.747 1142.17 1107.4 477.757 192.695 149.214 2179.64
internal_count=236876 180632 52618 128014 56244 87909 29613 40105 23005 45780 27041 7084 15921 16677 12936 42129 40417 32398 17512 40238 37885 7198 29160 2353 18039 7117 7571 23846 6970 11257 6983 3690 1438 1891 4835 9106 14886 2598 2485 12288 7285 1309 5363 1044 19846 7906 10639 26774 1051 4274 6441 2802 3639 25723 7596 18127 3753 16876 8323 8553 13064 3922 1736 4571 4434 1912 771 597 8723
cat_boundaries=0 1 2 3 4 5 6 7 8 9 10 11 12 13 14 15 16 17 18 19 20 21 22 23 24 25 26 27 28 29 30 31 32 33 34 35 36 37 38 39 40 41 42 43
cat_threshold=134784040 156017766 34739092 189277234 34738966 117721159 34738944 62 219792 16910535 1602 1920 9011304 1294 86576202 138683392 135952 75633552 134258720 1536 77596800 16786480 78211075 1200152 75497600 558088 75516424 147589153 558176 25798658 896 131590 1440 2 264192 11539020 1840 67174528 6308865 38273042 2166800 39845888 576
is_linear=0
shrinkage=0.1


Tree=3
num_leaves=70
num_cat=11
split_feature=7 5 5 7 5 7 7 5 7 5 5 5 5 7 5 7 7 5 7 7 6 5 7 5 7 5 7 7 5 5 6 5 6 5 5 5 5 7 7 5 5 2 2 5 2 2 2 5 7 5 7 2 5 7 7 7 7 2 6 2 5 5 2 7 5 2 7 2 6
split_gain=3770.32 2011.13 1709.16 827.467 715.718 601.316 572.055 565.132 436.405 286.985 245.22 242.61 199.768 171.858 132.15 131.272 108.712 101.125 100.534 97.8257 85.4113 70.9686 65.0608 59.1292 58.3948 52.3164 52.1529 49.0039 48.1311 47.3611 43.1141 41.7387 41.5663 52.0394 35.787 35.6178 34.4672 31.1272 29.0448 28.1922 27.6757 25.299 25.0365 23.1089 23.0957 22.8185 22.8055 22.7778 22.6118 22.3769 21.5393 21.5246 21.4881 21.4711 21.4642 21.2807 32.5917 27.4494 20.5411 20.8808 20.2614 20.2023 19.355 19.3415 18.7094 18.3896 18.3741 18.2712 18.1222
threshold=1509.2416247622493 1500.0034592791237 1591.8603522413421 1239.5660017236094 1289.6923553857735 1696.5709419860716 1696.5709419860716 1371.2040340808683 1312.9667468487989 1159.0653470741424 1795.5881921801329 1645.4788458687401 1692.4131117568113 1340.8445957714296 1139.9399459172494 1819.8350081593615 1110.5927998602485 1203.5355506595104 1877.7340637701116 1603.7105012605487 78.848301304354294 1818.8030096056516 1974.7649589743348 1363.7756731391821 1204.7825386000038 1714.5654227490702 1096.1693641280524 1351.7887810410314 1405.1743580383361 1827.503049110162 73.311614370751883 931.19246872631459 173.78345638036805 1267.2680292403509 1898.9862801156403 1530.410366642076 1051.6214951509976 1348.9729393835419 1654.4407217013015 1667.900891057295 1373.5857959877633 0 1 1233.1436225397026 2 3 4 1738.1328305883383 1923.2589449990091 1594.0398987013998 1614.9114965293904 5 989.61548150086276 1408.4598596386843 1836.0995975443209 1499.9990610339721 1500.000053589818 6 162.59750555570483 7 1916.0494022235064 1087.5698429752531 8 1032.1055930513096 1285.8593929063384 9 1646.2384186145528 10 56.089205008622663
decision_type=2 2 2 2 2 2 2 2 2 2 2 2 2 2 2 2 2 2 2 2 2 2 2 2 2 2 2 2 2 2 2 2 2 2 2 2 2 2 2 2 2 1 1 2 1 1 1 2 2 2 2 1 2 2 2 2 2 1 2 1 2 2 1 2 2 1 2 1 2
left_child=1 3 6 9 14 12 7 17 24 26 18 27 38 40 36 23 63 61 39 35 25 50 34 -8 -3 -13 31 -10 45 53 -23 -1 33 -18 -12 -9 -5 43 51 -7 -6 -21 -25 67 -30 -15 -37 -26 64 -29 -14 -4 -28 -22 -36 -39 57 -57 -42 -60 -32 -2 -52 -11 -17 -51 -19 -16 -66
right_child=2 8 5 4 13 10 15 19 11 16 22 20 21 28 37 48 32 66 -20 41 29 30 -24 42 47 -27 52 49 44 -31 60 -33 -34 -35 54 46 -38 55 -40 -41 58 -43 -44 -45 -46 -47 -48 -49 -50 65 62 -53 -54 -55 -56 56 -58 -59 59 -61 -62 -63 -64 -65 68 -67 -68 -69 -70
leaf_value=0.067574804573392475 0.11680848048402218 -0.10494854690970341 -0.0051392226281485147 0.098729042537623227 -0.011098808555956905 0.042590989601024552 0.08391183835075508 0.016025319685138897 -0.053395703463322911 -0.10697511552457697 -0.011181839700095307 -0.065781270852986864 -0.044059687938096899 0.023602445644535962 0.0047353560457883024 0.12443709544126047 -0.016689072769517459 0.05174266362577034 0.080278148491720658 0.040256929655771052 -0.060179920311670937 -0.11714684934806639 0.06602110158504633 0.043292823202063985 -0.071770645822580387 -0.11862537030503535 0.081537429749564017 -0.021956719844402933 0.0054242079981257785 -0.082428655491142477 -0.047978373446193948 -0.037122833581585968 -0.021527237602733978 -0.06395455785840623 -0.072003411007822704 0.011396328461432084 0.060873846890830065 0.044719721835334653 0.011786188708776438 0.019508251467302548 -0.041273597781354088 0.022586796231599517 0.06498349209988373 -0.002374196953334756 -0.0087359327992056358 0.0053862676193115596 -0.013587221123720053 -0.1010386831444101 0.11814305619181725 -0.017817909100930937 -0.0041089809623457837 -0.024302731076306282 0.024441783054186358 -0.042760826650951128 -0.018458721817138014 -0.028333485747909327 0.070662118939405147 0.030896044624628999 0.0014673433686435305 -0.03841864655890178 -0.085126015762686996 0.08426409687921646 -0.036301402331816474 -0.076691439192250965 0.12107906389951946 -0.044078232889548277 0.069206675181203353 0.046187995356803138 0.079948927936137934
leaf_weight=45.5627571195364 272.42253230512142 1097.9903227090836 1334.0708464980125 384.91513581573963 684.48228122293949 1037.8843723088503 998.89405025541782 3792.5887190401554 774.19624902307987 365.75148645043373 485.73722451925278 372.8732808381319 1251.0954947173595 963.99966835975647 181.6849335283041 142.53732571005821 286.17021128535271 2367.2061852961779 510.07870222628117 1933.1910147964954 1216.6791734844446 159.96460762619972 79.941465824842453 1222.6590974479914 1712.5262903273106 376.52925312519073 84.392454490065575 3457.2103398442268 1637.969828531146 534.80352877080441 473.49098394811153 231.76687304675579 482.67056055366993 1252.311123162508 219.47906671464443 654.93245489895344 641.1708859205246 1685.0449273735285 546.81943783164024 1079.4100617319345 1322.8699669837952 1589.6321811079979 1417.0797196030617 354.53133058547974 3838.4607593268156 2410.0309207886457 801.87597213685513 314.7796489149332 420.05470538139343 424.35167287290096 337.64118252694607 1061.9311497956514 301.07745856046677 1691.2778561860323 113.62304437160492 141.61760565638542 91.825933247804642 151.81733141839504 278.69098925590515 243.98258954286575 212.82326470315456 636.17482976615429 442.59943562746048 498.12631897628307 123.82611809670925 1018.376872420311 808.10547356307507 292.45531314611435 794.2614971101284
leaf_count=183 1094 4394 5338 1546 2740 4153 4004 15182 3098 1464 1944 1492 5006 3860 728 572 1146 9484 2041 7740 4869 641 320 4894 6853 1508 339 13835 6557 2141 1895 929 1933 5012 879 2621 2571 6753 2188 4319 5294 6363 5675 1420 15364 9648 3209 1260 1683 1698 1351 4249 1207 6768 455 567 368 608 1116 977 852 2551 1771 1994 496 4075 3238 1172 3181
internal_value=0 -0.0235366 0.0270985 -0.00267554 0.00741089 -0.00758697 0.0451337 0.0338766 -0.0538102 -0.046189 0.0250006 -0.0434949 -0.0273293 -0.00528869 0.0442326 0.0734039 -0.0598212 0.0646047 0.0404244 0.0195711 -0.0617384 -0.0460641 -0.0200874 0.0631888 -0.0863747 -0.0923322 0.0131489 -0.0300162 0.0012816 -0.0550788 -0.0703946 -0.019922 -0.0471303 -0.0551628 -0.028494 0.0109201 0.0750744 0.0333162 -0.00900952 0.0308233 -0.0282727 0.0324619 0.0553471 0.0169377 -0.00450676 0.0106768 -0.00237049 -0.0763151 0.0985065 -0.0263222 -0.0359277 -0.0137556 0.036942 -0.0500489 -0.053739 0.0398719 0.0186686 0.00239801 -0.0346422 -0.0178583 -0.0594977 0.0940218 -0.0228884 -0.089513 0.0907296 -0.0367833 0.0561872 0.0313778 0.0854963
internal_weight=0 31845 27322 18853.4 15305.6 9346.59 17975.4 12856.1 12991.6 3547.83 3526.15 9866.3 5820.44 11380.5 3925.06 5119.31 2885.03 4083.91 2627.37 8772.22 4192.16 2877.61 898.781 3638.63 3125.3 749.403 662.8 5674.14 8850.46 3442.76 846.279 277.33 2021.15 1538.48 818.839 5249.4 1026.09 2898.98 2942.82 2117.29 2530.03 3522.82 2639.74 828.672 5476.43 3374.03 1456.81 2027.31 1480.68 4899.94 2031.34 2396 385.47 2907.96 333.102 2070.31 385.261 293.435 1845.54 522.674 686.314 908.597 780.241 863.878 1060.62 1442.73 3175.31 474.14 918.088
internal_count=236876 127487 109389 75496 61289 37402 71987 51482 51991 14207 14111 39484 23291 45556 15733 20505 11549 16367 10513 35115 16778 11516 3598 14573 12507 3000 2658 22706 35429 13778 3388 1112 8091 6158 3278 21012 4117 11616 11775 8472 10127 14103 10569 3320 21921 13508 5830 8113 5932 19608 8128 9587 1546 11637 1334 8296 1543 1175 7387 2093 2747 3645 3122 3458 4249 5773 12722 1900 3677
cat_boundaries=0 1 2 3 4 5 6 7 8 9 10 11
cat_threshold=225063281 124787459 134785286 18653344 6938679 191122662 64525212 199053836 180501193 4237546 37930451
is_linear=0
shrinkage=0.1


Tree=4
num_leaves=70
num_cat=40
split_feature=5 5 5 5 2 2 2 5 5 8 5 5 2 5 8 0 0 0 5 8 2 0 0 0 2 0 0 8 0 8 0 0 8 2 2 0 0 2 8 0 0 0 8 2 2 0 2 0 5 2 2 0 8 8 8 2 5 2 8 5 8 8 3 0 2 8 2 0 8
split_gain=2163.82 939.52 265 187.456 133.988 87.7027 74.0603 73.2323 61.486 59.4483 50.9247 45.2449 39.8444 39.1791 35.1379 34.6945 31.4421 30.9832 30.1457 31.0289 30.1076 26.1724 25.4334 24.1746 23.95 23.4375 23.1808 22.1275 21.4866 21.2951 23.6042 21.0586 20.7222 20.4975 20.4897 20.3056 20.0501 20.7911 19.6615 19.106 18.823 18.7499 18.6102 17.7099 15.6139 15.4411 15.3077 15.2738 15.1572 15.0347 14.5904 14.5432 14.1362 14.1121 14.053 14.0508 13.8662 13.736 13.4702 13.3601 12.7195 12.708 12.5662 20.3231 12.4073 12.1459 11.9072 11.827 11.9284
threshold=1594.0398987013998 1337.7904728777035 1802.5512902444159 1209.7693853659543 0 1 2 1500.0034592791237 1051.6214951509976 156.15158745450051 1969.9929611869197 1692.4131117568113 3 1474.1176169984005 290.23316570051321 4 5 6 1658.7677955233232 60.755267882514012 7 8 9 10 11 12 13 290.22537750246471 14 130.30598223100426 15 16 191.92124928788641 17 18 19 20 21 290.23316570051321 22 23 24 64.413482237581363 25 26 27 28 29 1633.0130860950721 30 31 32 237.71169491708741 290.22537750246471 227.56780967932437 33 1333.7706634140732 34 267.74642377130937 1358.5280137871475 66.451926256503967 230.54025743404029 35 36 37 54.2839403149068 38 39 54.2839403149068
decision_type=2 2 2 2 1 1 1 2 2 2 2 2 1 2 2 1 1 1 2 2 1 1 1 1 1 1 1 2 1 2 1 1 2 1 1 1 1 1 2 1 1 1 2 1 1 1 1 1 2 1 1 1 2 2 2 1 2 1 2 2 2 2 1 1 1 2 1 1 2
left_child=1 3 5 8 13 11 14 9 36 22 20 25 -10 16 23 -14 50 38 26 45 -4 61 49 56 29 48 32 -17 64 30 -9 -26 33 -7 -24 -15 -1 -38 -8 43 44 -31 -18 -13 -22 -20 -29 -16 -2 51 -3 -6 -52 62 -41 -23 58 -19 -5 -53 -36 -11 67 -64 -21 -59 -63 68 -27
right_child=2 4 10 6 7 18 17 24 12 21 -12 39 15 35 47 27 42 57 19 28 40 55 34 -25 31 53 -28 46 -30 41 -32 -33 -34 -35 60 -37 37 -39 -40 54 -42 -43 -44 -45 -46 -47 -48 -49 -50 -51 52 59 -54 -55 -56 -57 -58 65 -60 -61 -62 66 63 -65 -66 -67 -68 -69 -70
leaf_value=0.09490760893923092 -0.008618049097862306 0.048214619799323927 -0.034668470841570181 0.00090851823978277044 0.013998291783070705 -0.014932658012620257 0.048063122372812059 -0.02516115167233357 0.064710705240546243 -0.0076706196873777971 -0.089166652228515303 0.018119581920842644 0.064488855467495984 0.016910004349434724 -0.07403178155180086 0.035932791048102729 0.033939764111707793 0.043636186007041437 -0.0026281515944557134 -0.029998852837796349 -0.026919519387011655 0.008006567837364623 0.002704402516281729 0.024514868168099242 0.0021801584530294839 0.039457444117398432 -0.019247103771557302 0.032391483495182949 -0.033794937579682771 -0.043986234263850815 -0.00017165324628986374 -0.011120861524470038 -0.072858198429577067 -0.050654821641129312 0.025449923890060705 0.0030981990333800347 0.01182473875128732 0.068748970601483217 -0.0057855621652320409 -0.02858841182946182 -0.069603479189291689 -0.015932138321683109 0.0120747666368993 -0.020151727749787973 -0.060263091454469148 -0.033984057245762631 -0.031692511475763026 0.00093278604515610326 -0.033157538923808204 -0.0035023966327464998 0.027394280765066909 0.043405859728278713 -0.038683450017646476 -0.030366565837391637 -0.053432854804454005 -0.0074133186861260782 0.043260317854347252 0.045665130411378513 -0.069934559285972711 -0.0099363118230936347 0.012359407310805344 -0.0099734508247753956 0.017980939428960504 -0.024823550015907622 -0.055850645498323595 0.023558747718804608 -0.032625066272381889 -0.0058426648184982753 0.0046055048331336201
leaf_weight=410.30101336538792 430.9264835268259 545.31060619652271 817.80370658636093 861.74407769739628 1319.9466370493174 375.94773346185684 1451.4349478632212 607.29218302667141 946.54206278920174 1316.8609792590141 434.02763718366623 146.8394031226635 457.5520778298378 1567.8798367232084 57.441563352942467 1746.0949966907501 469.17542210221291 515.60641586780548 346.11345449090004 323.08856189250946 334.94054815173149 1274.5015297681093 1743.2203603535891 982.31928293406963 2153.8021939098835 112.60621090233326 2268.1284681260586 53.565821900963783 1960.0966187864542 435.30229070782661 985.72468937933445 2650.6717876791954 152.80917036533356 314.85098403692245 1020.5246697217226 3318.2555962204933 98.045021921396255 380.37140840291977 71.128524288535118 1608.4657542705536 1021.4383252412081 604.1882981210947 2285.6826962530613 557.72167207300663 350.20893780887127 290.94501383602619 81.061024203896523 54.702908471226692 605.19124419987202 2542.8056755363941 325.13678260147572 51.606426149606705 35.956345662474632 210.49408492445946 265.21283514797688 1084.6605378389359 75.790376588702202 270.59663161635399 27.702531158924103 520.79078432917595 2722.1985619962215 456.06038762629032 135.64697790145874 506.09911535680294 1230.4391570389271 3049.097523868084 537.1125151515007 1359.9478868991137 767.80971130728722
leaf_count=1661 1725 2188 3280 3455 5288 1505 5831 2431 3812 5275 1746 588 1841 6283 230 7017 1882 2072 1386 1295 1344 5105 6982 3939 8625 451 9082 215 7852 1744 3946 10613 613 1261 4089 13295 396 1537 285 6440 4102 2420 9163 2233 1406 1165 325 219 2423 10182 1304 207 144 843 1063 4344 304 1087 111 2086 10905 1826 543 2026 4933 12238 2151 5444 3074
internal_value=0 0.0119882 -0.0303371 0.0362315 0.00279741 -0.0245792 0.0266924 -0.0013285 0.0531853 0.00278748 -0.0575254 -0.0162489 0.0468719 0.013416 0.0103969 0.0392062 0.021253 0.0328761 -0.0322057 -0.0378285 -0.0520852 -0.00651709 0.00716653 0.0135816 -0.00940526 -0.00978263 -0.0248091 0.0327468 -0.0415101 -0.0170577 -0.00985721 -0.00516599 -0.0390717 -0.0321635 0.0117102 0.00757113 0.0765204 0.0575641 0.0452503 -0.0266667 -0.0598773 -0.0282566 0.0157414 -0.0120336 -0.0445846 -0.0175231 -0.00614262 -0.0439831 -0.022732 0.00151656 0.0374181 0.00824365 0.0202536 -0.00535336 -0.0319346 0.000915674 0.0021782 0.0278587 -0.00129795 -0.00503903 0.0158863 -0.0140511 -0.00354511 -0.0158825 -0.0507005 0.0252845 -0.0226525 -1.10881e-05 0.00896132
internal_weight=0 42165.8 16927.8 11591.1 30574.7 13969.4 7417.56 22027.3 4173.53 14590.3 2958.42 6706.96 3284.82 8547.4 2059.7 2338.27 3661.26 5357.86 7262.42 4150.68 2524.39 4669.2 9921.09 1947.56 7436.98 4128.72 3111.74 1880.72 3513.62 2632.51 1593.02 4804.47 843.608 690.799 5485.94 4886.14 888.717 478.416 1522.56 2578.24 1706.59 1039.49 2754.86 704.561 685.149 637.058 134.627 112.144 1036.12 4435.15 906.404 1892.34 361.093 3092.6 1873.68 2359.16 965.237 3835.3 889.447 572.397 3742.72 2310.03 2882.11 641.746 1553.53 3319.69 993.173 2240.36 880.416
internal_count=236876 169053 67823 46575 122478 55945 29771 88219 16804 58440 11878 26853 13210 34259 8258 9398 14681 21513 29092 16631 10132 18701 39739 7809 29779 16529 12461 7557 14080 10541 6377 19238 3379 2766 21976 19578 3594 1933 6116 10324 6852 4164 11045 2821 2750 2551 540 449 4148 17763 3636 7581 1448 12381 7503 9449 3870 15397 3566 2293 14994 9252 11538 2569 6228 13325 3977 8969 3525
cat_boundaries=0 1 2 3 4 5 6 7 8 9 10 11 12 13 14 15 16 17 18 19 20 21 22 23 24 25 26 27 28 29 30 31 32 33 34 35 36 37 38 39 40
cat_threshold=138994728 151645353 42996496 227344416 71439488 15273028 12751228 205562936 163972718 41587818 152483851 36836096 136119312 134333514 260407648 144860307 35064477 107217158 9507074 25675176 68227537 8933788 77926980 24554049 175890720 58376 11290755 257973418 33557571 118755553 92342481 134782984 36831274 86245719 294944 4 35786764 2097428 17238279 92428736
is_linear=0
shrinkage=0.1


Tree=5
num_leaves=70
num_cat=39
split_feature=5 5 5 6 5 5 2 6 5 5 2 6 0 2 2 6 6 0 0 5 0 6 0 2 0 0 5 0 2 0 5 0 6 0 5 5 0 2 2 2 0 5 0 6 0 6 2 0 0 6 2 6 0 2 5 6 0 5 2 5 0 6 2 2 2 0 6 1 2
split_gain=1840.03 660.144 274.029 141.43 136.575 107.097 103.17 102.242 81.7061 69.1506 62.2188 61.3925 51.1368 48.7978 37.2862 35.8144 34.2353 34.0496 29.3899 26.8456 26.3009 31.0705 24.7528 23.1135 22.5929 21.7167 21.2614 20.5724 26.5469 20.4075 19.662 19.5309 18.4071 19.3371 18.9112 18.3011 17.071 17.0452 16.8875 16.1214 15.9529 15.9512 15.7641 15.5697 15.0715 14.6204 14.3634 14.2374 14.1698 13.9125 13.7093 13.5252 13.1837 13.1155 13.0664 13.0321 18.2714 12.5676 15.8663 12.3244 13.4419 12.8877 14.6128 12.1815 11.9252 11.8602 12.0939 11.8353 11.4574
threshold=1564.7234902082316 1278.2095381849927 1692.4131117568113 234.00312477425291 1438.0127301739037 1916.0494022235064 0 239.76469764069176 1159.0653470741424 1371.2040340808683 1 167.46208747340575 2 3 4 83.541418882288028 75.824175831423545 5 6 989.61548150086276 7 169.98185961513983 8 9 10 11 1596.0862863922948 12 13 14 1628.1616980731355 15 188.9768598375812 16 1818.8030096056516 1507.4181819208216 17 18 19 20 21 1770.8895543546339 22 93.143042600233386 23 33.659608494628152 24 25 26 283.62159817550997 27 57.670588055677619 28 29 1566.7655901790565 99.525514421852691 30 1308.0014910798936 31 1488.867822169417 32 53.959485757536733 33 34 35 36 65.757650920973035 37 38
decision_type=2 2 2 2 2 2 1 2 2 2 1 2 1 1 1 2 2 1 1 2 1 2 1 1 1 1 2 1 1 1 2 1 2 1 2 2 1 1 1 1 1 2 1 2 1 2 1 1 1 2 1 2 1 1 2 2 1 2 1 2 1 2 1 1 1 1 2 1 1
left_child=1 8 7 6 57 13 29 10 12 37 22 14 19 32 36 -7 24 -11 63 -1 -18 43 54 25 41 -6 -9 28 -17 59 68 -12 34 67 65 -25 -10 48 -13 -14 -39 -15 -40 53 -28 -19 -33 -36 -8 -37 -21 -41 -32 -22 -2 56 -20 58 -5 60 -3 62 -62 -16 -61 -4 -67 -34 -24
right_child=2 3 5 4 23 15 9 26 11 17 31 38 39 16 18 27 20 45 55 50 21 -23 30 35 -26 -27 44 -29 -30 -31 52 46 33 -35 47 49 -38 40 42 51 -42 -43 -44 -45 -46 -47 -48 -49 -50 -51 -52 -53 -54 -55 -56 -57 -58 -59 -60 64 61 -63 -64 -65 -66 66 -68 -69 -70
leaf_value=0.09830375797697638 0.068282598268578881 0.017286674540245055 -0.049054026856889144 0.050741375939765937 0.032589566626873984 -0.10445195492329251 0.026791882672558338 -0.07880219161618808 0.031951824227208346 0.017543622373371148 -0.011174654482744423 0.055171184645796789 0.012069186039658621 -0.045792209802266753 -0.0036632477917042231 0.010102808442458509 -0.033639707684681858 0.040692396698453585 0.044595826111057328 0.073308269752362182 0.014315491266225944 -0.03138639502192965 0.01321116203374023 0.005882239043889112 -0.029250787394246948 0.0090312975764319028 -0.0043611970534197112 -0.072498926230857116 -0.05978737655631422 -0.0064994353591614432 -0.032488962498589749 -0.032685782163330741 -0.074657014489412865 -0.067586394005041461 -0.020456671774321044 -0.010289493069618884 0.0048055517570908465 0.04179279040301196 0.01577337160510793 -0.018907303962431999 0.020280053539600228 -0.085950583461601435 0.045717006604088811 0.00014913806166202666 -0.042072264485793903 0.0027757046216699069 -0.018533372713870403 -0.064046245041558633 0.0060781757728545866 -0.087112874676950822 0.044959197030544754 0.046415594084585884 -0.010249442893738352 -0.037166519615387195 0.0056032125375943959 0.03631931886732926 0.0050328369872722975 0.04957900677182852 -0.006919522204715191 -0.017883583992930278 -0.010200537967651975 -0.00055280007836641123 0.029483876510378534 0.077275392076193994 0.0001283414527576239 -0.052491460144815871 -0.024706922196122232 -0.019453549228777262 -0.0060257242844232216
leaf_weight=250.21524664759636 33.936135277152061 684.72545482218266 455.94240134954453 82.81953153014183 727.36419822275639 242.6828710436821 574.90458115935326 142.45287925004959 288.82362613081932 2034.3311803787947 2436.3776386976242 1038.0611253976822 216.01498533785343 213.959577023983 28.507766231894493 96.689309060573578 1351.8802693635225 102.88998614251614 155.33953008055687 583.29441863298416 61.626409187912941 759.00010281801224 405.8636237680912 1874.8246770948172 545.87027785181999 890.31736166775227 135.44594086706638 401.01187084615231 116.13336539268494 7076.9158986657858 406.86742220818996 1101.1108233779669 48.577009841799736 570.55095966160297 129.38940112292767 66.924621537327766 1085.0866728723049 717.29610286653042 333.08284613490105 32.682843640446663 808.78913882374763 183.94505779445171 476.61311873793602 981.50879421830177 904.90014566481113 8753.441934838891 2494.9738358110189 439.24079914391041 804.98016995191574 36.391756981611252 465.66565668582916 1050.4258141666651 836.059755012393 217.47747823596001 1666.0795158594847 752.91783738136292 428.40583570301533 1383.0453510582447 99.632167145609856 525.10796003043652 130.07104858756065 2791.0296252518892 302.51172386109829 195.48283030092716 1183.1620322912931 183.88990260660648 1058.0053360164165 193.69861243665218 1202.8420998603106
leaf_count=1025 136 2744 1832 333 2917 987 2308 572 1162 8155 9759 4190 871 858 115 390 5423 413 626 2367 247 3045 1625 7514 2190 3569 543 1621 469 28343 1630 4414 195 2295 521 268 4359 2884 1340 132 3251 742 1919 3934 3632 35074 9995 1772 3230 146 1888 4250 3347 872 6672 3033 1724 5569 401 2103 521 11181 1212 790 4738 738 4244 778 4816
internal_value=0 0.0128073 -0.0244835 0.00652735 0.0216712 -0.0384556 0.00357674 -0.014686 0.0397387 0.00955873 -0.0115699 0.0319833 0.054013 -0.0345782 0.0229927 -0.0719308 -0.0274632 0.00590862 0.0335294 0.0683453 -0.0228143 -0.0153256 -0.00271323 0.0109379 -0.0443618 0.019759 -0.0425701 -0.0590733 -0.0290066 -0.00293034 -0.00839711 -0.0182178 -0.0443159 -0.0573703 -0.0398297 0.00360606 0.0107019 0.0232711 0.0462619 0.038855 0.0305978 -0.0627791 0.0337419 -0.00577719 -0.0376089 0.00321258 -0.0229454 -0.0556137 0.0148388 -0.0373495 0.0618507 0.0440379 -0.0178733 -0.026618 0.00681435 0.0274199 0.0164111 0.0463247 0.0216561 0.00157028 0.00466998 0.00193047 0.0179971 0.0672578 -0.00551231 -0.0345434 -0.0285908 -0.0293121 -0.00112775
internal_weight=0 39032.1 20018 31651.5 5161.32 8251.08 26490.2 11766.9 7380.62 13796.6 10584.1 4782.32 2598.3 7394.56 2934.56 856.517 4315.27 10890.7 1560.65 1299.18 3371.49 2019.61 4551.65 3595.82 943.775 1617.68 1182.8 613.835 212.823 12693.5 2851.63 6032.46 3079.29 812.827 2266.47 1978.14 1373.91 2905.97 1847.76 1299.12 1526.09 397.905 809.696 1260.61 1040.35 8856.33 3596.08 568.63 1379.88 103.316 1048.96 1083.11 1242.93 279.104 1700.02 1336.66 583.745 1565.5 182.452 5616.61 3908.34 3223.61 432.583 223.991 1708.27 1697.84 1241.9 242.276 1608.71
internal_count=236959 156665 80294 126874 20717 33153 106157 47141 29791 55315 42394 19258 10533 29686 11809 3467 17311 43642 6288 5280 13521 8098 18226 14414 3790 6486 4747 2480 859 50842 11418 24168 12375 3268 9107 7928 5521 11673 7449 5253 6135 1600 3259 5053 4175 35487 14409 2293 5538 414 4255 4382 4977 1119 6808 5383 2350 6303 734 22499 15658 12914 1733 905 6841 6814 4982 973 6441
cat_boundaries=0 1 2 3 4 5 6 7 8 9 10 11 12 13 14 15 16 17 18 19 20 21 22 23 24 25 26 27 28 29 30 31 32 33 34 35 36 37 38 39
cat_threshold=103947030 143191209 210965969 41354054 36866965 9683976 197072 56190176 113399992 138944046 182079880 119147164 3619680 252981362 234970032 49417772 6932689 37881228 29622465 187459694 151580 33180002 188162088 6489216 68289280 84968024 63656124 87729002 135070976 46088 17072165 28459851 65936 34603012 8397832 1180416 146899104 1 27648
is_linear=0
shrinkage=0.1


Tree=6
num_leaves=70
num_cat=19
split_feature=7 5 5 7 7 7 5 5 7 4 5 7 5 5 7 5 7 7 4 5 5 5 4 5 7 6 5 7 5 7 5 6 7 0 4 6 6 5 0 6 5 7 6 7 7 0 0 7 0 7 0 7 7 0 0 5 6 7 7 7 0 0 0 7 0 5 0 4 0
split_gain=3112.2 1171.47 1036.03 726.08 577.815 449.068 440.11 380.013 326.355 174.587 158.983 152.665 138.75 129.887 112.134 98.3324 94.248 85.4841 82.9391 70.95 70.3507 68.5631 62.214 59.8466 53.9809 47.4828 43.7351 40.1932 38.7209 36.9302 33.7583 33.4027 31.7685 31.4858 30.5112 30.1409 29.6031 36.5209 29.449 28.2641 26.2733 25.6061 25.5834 28.706 24.9142 23.9814 23.6636 22.4945 22.2228 21.8364 20.661 20.5606 20.3809 19.7565 19.6082 19.5669 19.2262 19.1365 18.8395 18.7818 18.5973 18.5606 18.047 17.8475 24.1651 17.7525 17.7286 17.7076 17.6961
threshold=1500.000053589818 1503.8839918208521 1616.8537441592132 1235.7374165174006 1671.0741357678844 1679.9299513029327 1271.4811351340977 1373.5857959877633 1337.7876007984123 0 1116.7838920957549 1316.3220769731931 1795.5881921801329 1665.0701595524674 1855.2011344496934 1818.8030096056516 1827.7220791305124 1110.5927998602485 1 1475.9741033017449 1253.1042222350218 1159.0653470741424 2 1511.447724721728 1813.0246636811678 77.335318315014717 1330.7313927609071 1058.2511522309485 1253.1042222350218 1190.2741289390844 1653.3195641487266 230.57766259459919 1603.7105012605487 3 4 180.81013213813119 122.21341595497803 1776.716268574967 5 63.279779324216669 1729.8630628226349 1397.0556684453547 250.95948964180346 1394.8331711264534 1603.7105012605487 6 7 1499.9990610339721 8 995.73445575043172 9 1499.9990610339721 1499.9990610339721 10 11 1405.1743580383361 131.81328463390616 1204.7825386000038 1586.1930194585379 1945.5610188845242 12 13 14 1605.8930640576366 15 1380.6340624181428 16 17 18
decision_type=2 2 2 2 2 2 2 2 2 9 2 2 2 2 2 2 2 2 9 2 2 2 9 2 2 2 2 2 2 2 2 2 2 1 9 2 2 2 1 2 2 2 2 2 2 1 1 2 1 2 1 2 2 1 1 2 2 2 2 2 1 1 1 2 1 2 1 9 1
left_child=1 3 4 10 7 15 21 20 22 14 27 53 16 41 19 30 -7 35 -15 56 -2 51 29 44 50 -17 47 -1 46 -3 63 -30 48 -23 -22 49 37 -20 65 -32 -31 -10 43 66 60 -36 -19 62 -25 -12 -14 -5 68 -8 -33 67 -6 -24 -41 -18 -9 -60 -13 64 -4 -11 -28 -45 -44
right_child=2 8 5 6 9 12 11 23 13 38 17 26 24 18 -16 25 59 28 36 -21 34 33 57 32 -26 -27 42 -29 31 40 39 54 -34 -35 45 -37 -38 -39 -40 58 -42 -43 52 55 -46 -47 -48 -49 -50 -51 -52 -53 -54 -55 -56 -57 -58 -59 61 -61 -62 -63 -64 -65 -66 -67 -68 -69 -70
leaf_value=-0.035689154687121576 0.068100028576820404 -0.11205781289782508 -0.033159035150177006 0.059467028076405248 0.090660083598351093 0.021955711258268222 -0.01949474029898533 0.024055811422861284 -0.036658610398363205 0.066636924985541551 -0.11774729922698407 0.029533116941922712 -0.00061155491946371593 -0.030145494353625915 0.10638354042773684 -0.10179915063860914 0.05565818771787906 -0.039403922781954259 -0.062902646400984516 0.051088255105916386 0.05608231449746514 0.041371766729784293 -0.073810252601724594 0.0067664312152027452 0.01916235135417613 -0.043776009168638053 -0.00013549359632333729 0.026991181096230773 -0.0568227946029232 -0.069752429229954907 -0.046993251835607271 0.021167673831962885 0.016719692389766293 0.015312158179417758 0.048997623053654918 -0.045775710843306901 -0.05268714925302842 -0.10384013548785205 0.027134474056994835 -0.02818595646773199 -0.10490700712457186 -0.021721170312674818 0.00018245985427614063 0.015247418438780162 0.029950795344114517 0.023240557831408395 0.0097497226003821283 -0.0176206224505977 -0.011529699959597522 -0.079603104191452792 -0.041247738424402706 0.018671732517555887 -0.0043344135920553055 -0.040152626311649363 -0.038167544176816733 -0.0064240195098709818 0.068672939199095145 -0.052437810817694878 0.0038877203633670547 0.092643497152949589 0.0093526454338341124 -0.021284181004271301 0.0047393888274596301 0.013321402875016451 0.004026949306552288 0.042251320597143704 -0.021645921617381603 -0.006072936271512501 0.029609767280478417
leaf_weight=151.60845944285393 1396.95002374053 416.92518265545368 314.67459206283092 1063.0621440857649 841.03023317456245 1684.4429572224617 947.67219235002995 1460.2760701328516 1625.5916190594435 434.01098564267159 207.77073641121387 779.44987180829048 191.77241210639477 1123.5283919274807 815.37010034918785 179.62094649672508 563.61684088408947 191.63103558123112 565.71383751928806 1745.4957273006439 860.01704470813274 734.49123696982861 575.46951918303967 1297.7796204537153 393.48267662525177 656.57795791327953 528.10921323299408 314.57218439877033 1420.8742416203022 951.90997979044914 456.84954632818699 88.302374824881554 1267.1186317354441 1353.1409318447113 578.3769229799509 191.95356784760952 837.37825392186642 354.46656861901283 1202.9506318718195 1322.3288051337004 273.7266661375761 3902.8557305783033 339.66244660317898 1006.0379396677017 1708.0953336656094 1167.6811739206314 188.06075109541416 179.30418317019939 1339.881832331419 540.50917924940586 395.81180860102177 139.78711307048798 717.52339930832386 1066.334057494998 124.31163677573204 3082.7104983776808 754.46893736720085 1540.2270327657461 502.13142828643322 181.52361182868481 2193.4730902612209 694.73504169285297 491.46155074238777 398.16859970986843 380.19940857589245 956.37079863250256 1463.7853406667709 627.59626923501492 528.66701209545135
leaf_count=614 5689 1681 1260 4342 3397 6745 3795 5852 6519 1755 833 3131 774 4522 3297 737 2257 770 2276 7004 3469 2966 2319 5195 1585 2655 2115 1280 5691 3821 1833 354 5075 5455 2332 769 3375 1446 4834 5307 1110 15632 1361 4033 6851 4704 756 719 5364 2166 1600 568 2874 4271 498 12341 3058 6190 2013 727 8788 2787 1974 1594 1522 3836 5861 2514 2121
internal_value=0 -0.0219423 0.0240382 -0.00607004 0.0363622 -0.00563001 0.00338175 0.0242456 -0.0460334 0.0601831 -0.0476651 -0.00566488 0.0222385 -0.0350851 0.0729595 -0.025007 0.0350554 -0.0562316 -0.0523006 0.0650207 0.0499932 0.0357093 -0.0705314 0.0131231 -0.00950206 -0.0562398 -0.000484614 0.00660666 -0.0446048 -0.0858265 -0.0185887 -0.0512912 0.003706 0.0247522 0.0402873 -0.0811261 -0.0659168 -0.0786723 0.0392735 -0.0241087 -0.0776037 -0.0261134 -0.00328599 -0.00598635 0.0199811 0.0320029 -0.0158392 0.0155371 -0.00254571 -0.0901944 -0.0286975 0.0547261 0.00813667 -0.0307284 -0.0143241 -0.00173514 0.080263 -0.0579771 -0.0199587 0.0646682 0.0153204 -0.010869 0.020215 -0.00355926 -0.013232 0.0495073 -0.0160522 0.0071129 0.0184419
internal_weight=0 30636.2 28335.3 18468.4 20019.3 8315.94 15048.8 13269.6 12167.8 6749.7 3419.59 11758.3 3410.65 8409.53 4156.36 4905.29 2429.58 2953.41 2881.09 3340.99 4003.03 3290.48 3758.26 9266.62 981.067 836.199 9744.31 466.181 2013.18 1642.56 4069.09 1633.49 3904.78 2087.63 2606.08 940.233 1757.56 920.18 2593.33 2976.04 1225.64 5528.45 8294.09 6708.24 5361.84 1746.06 379.692 1450.22 2637.66 748.28 587.584 1202.85 1585.85 2014.01 212.614 4716.34 1595.5 2115.7 2519.2 745.14 3653.75 1196.87 1270.91 1093.04 694.874 1390.38 1991.89 1633.63 868.329
internal_count=236959 123063 113896 74172 80500 33396 60441 53319 48891 27181 13731 47110 13688 33770 16756 19708 9729 11837 11619 13459 16194 13331 15121 37125 3959 3392 39044 1894 8069 6612 16316 6543 15634 8421 10505 3768 7097 3722 10425 11940 4931 22151 33220 26864 21491 7036 1526 5824 10559 2999 2374 4910 6356 8066 852 18888 6455 8509 10107 2984 14640 4800 5105 4376 2782 5591 7976 6547 3482
cat_boundaries=0 1 2 3 4 5 6 7 8 9 10 11 12 13 14 15 16 17 18 19
cat_threshold=1546 484 1542 37754577 1052 60578612 63361304 203995447 18429550 57951824 37237397 12200600 102581208 61085773 177898295 193536650 15008137 1736 147649648
is_linear=0
shrinkage=0.1


Tree=7
num_leaves=70
num_cat=13
split_feature=7 5 5 7 7 7 5 5 7 7 5 5 5 8 7 5 8 7 5 7 6 7 8 7 5 5 7 8 6 8 5 7 5 7 5 6 5 7 2 6 8 5 2 6 2 5 5 8 7 2 2 8 2 2 5 2 5 2 5 8 2 2 6 2 7 7 5 6 2
split_gain=2528.96 954.609 844.96 590.329 449.704 404.793 377.195 312.398 268.511 155.857 129.309 111.041 107.137 93.1846 92.8406 91.3531 72.467 63.2658 59.6477 55.5241 49.7979 48.6225 50.1776 47.074 44.9401 44.9317 44.9112 40.0187 36.658 36.5708 35.8729 35.3078 34.2511 30.6008 28.0891 27.6033 25.5741 25.5624 25.0369 24.1108 23.4735 22.987 23.8089 22.3448 24.3005 22.0899 21.7076 23.9982 20.8696 20.6682 20.3666 19.9034 19.7062 19.6163 19.4755 19.0424 18.778 18.3089 18.5658 17.9858 20.8181 17.6144 17.2224 17.2097 17.1294 16.9458 16.6184 16.4472 16.4234
threshold=1500.000053589818 1503.8839918208521 1598.3524275228458 1211.2432499786137 1703.7573995106197 1662.212510065897 1271.4811351340977 1337.7904728777035 1337.7876007984123 1316.3220769731931 1795.5881921801329 1116.7838920957549 1665.0701595524674 75.076185511488674 1792.0248247212096 1818.8030096056516 219.36291494149518 1603.7105012605487 1116.7838920957549 995.73445575043172 66.28671539919371 1798.7157587665408 108.69834738831516 1836.0995975443209 1209.7693853659543 1503.8839918208521 1204.7825386000038 63.384095926667889 77.335318315014717 93.68552654155701 1337.7904728777035 1785.8168436597782 1653.3195641487266 1382.9103858510218 1380.6340624181428 182.17419477467021 1869.1376044277451 1058.2511522309485 0 162.59750555570483 66.96639713680473 1258.1917485436397 1 151.51600140163012 2 1630.5217977668092 1936.8554745610729 156.15158745450051 1378.0593163708668 3 4 210.73638673490703 5 6 989.61548150086276 7 1466.8448950816282 8 1733.742806852297 100.02644724946438 9 10 119.93889442430977 11 1626.5508966323061 1492.9603147123587 1733.742806852297 77.829116268401961 12
decision_type=2 2 2 2 2 2 2 2 2 2 2 2 2 2 2 2 2 2 2 2 2 2 2 2 2 2 2 2 2 2 2 2 2 2 2 2 2 2 1 2 2 2 1 2 1 2 2 2 2 1 1 2 1 1 2 1 2 1 2 2 1 1 2 1 2 2 2 2 1
left_child=1 3 4 11 7 15 16 24 26 39 14 37 48 31 40 32 18 25 -5 -13 66 34 -23 46 -2 -9 -3 56 -17 -16 49 -6 -4 -20 -15 41 65 -1 -34 -8 57 42 -21 44 -32 -28 61 -48 -10 -11 -25 -46 -26 -47 -39 -43 -19 -7 -59 -45 -61 -12 -38 -36 -54 -22 -14 -40 -41
right_child=2 8 5 6 13 10 9 17 12 30 23 19 20 21 29 28 -18 27 33 35 36 22 -24 50 52 -27 45 -29 -30 -31 43 -33 38 -35 63 -37 62 54 67 68 -42 55 -44 59 51 53 47 -49 -50 -51 -52 -53 64 -55 -56 -57 -58 58 -60 60 -62 -63 -64 -65 -66 -67 -68 -69 -70
leaf_value=-0.032016906604454935 0.069100440697300231 -0.081499950583700478 -0.0047335689995192934 0.063273809500155515 0.072167693837679334 -0.0105143897007508 -0.034579396958084145 0.016719525922991956 -0.035182262850186004 0.029447633645849448 -0.033147834083994042 -0.099114332550171477 -0.058782644283454255 0.060572122344270708 0.07706869712261577 -0.096512673648793956 -0.0027806166541012264 0.070490064045037062 0.017876367345461875 -0.065445062625874281 -0.042961668989124652 0.10383787990347382 0.058928636411192781 0.042482717749859261 0.056839823184654505 -0.00042456898889656615 -0.048801278633151632 0.021600958479915545 -0.042721870392660205 0.039713795205518432 0.0029275615866208144 0.11509104017950718 -0.034382080299051328 0.0413919533904741 0.059680927044806903 -0.028408191077916783 -0.10431738958858471 0.061783276861595321 -0.032378420552712096 0.005352382903849544 0.010968691275358225 -0.039822331090775494 -0.013705677957774191 0.016408226508367506 -0.0084372960564605762 -0.036668652282704432 -0.071122326238108463 0.033030528470493918 -0.020282246282038677 0.0052958599542009569 -0.0070467585784474282 -0.029145108035890755 0.028430525923469497 -0.073749332838344006 0.0018610121334963559 -0.070755500346896483 0.035917364756268333 0.058484764868470443 0.0071820065511986235 -0.022085923098619849 0.004080246163948969 0.0017635714232985449 -0.053670737316876285 0.032412574589503078 0.050608900314757024 -0.020855815970564781 -0.10280475421481453 -0.0088481070427029254 -0.02678761440366282
leaf_weight=152.07111185789108 1001.8133657574654 1043.9598381668329 1574.1515816301107 691.39884273707867 418.32379958033562 72.41447739303112 1807.3626561462879 4018.8492590487003 1201.2593578249216 512.29719172418118 261.53992749750614 261.210528627038 156.44919450581074 825.05169957876205 400.34828735888004 161.34159718453884 523.6375153362751 239.53750741481781 1107.5322811901569 147.09788347780704 1769.2066985219717 310.07270735502243 1258.8813261836767 182.64773634076118 834.88540323078632 2467.184932783246 1469.0781374573708 3565.2821017056704 589.94780127704144 758.86563165485859 1715.3654086738825 353.6496626585722 1163.5129570662975 1105.9791192859411 324.66223751008511 454.69618727266788 96.084489598870277 77.016963496804237 397.47515866160393 298.82408098876476 1515.8504610061646 387.86631585657597 247.9672150015831 837.90220007300377 3119.6829772442579 252.29429630935192 144.75475797057152 26.113533020019531 4322.6564912945032 1148.6712492108345 147.1859590113163 545.2783385515213 981.9181282967329 969.82349655032158 183.39263936877251 928.12819556891918 456.50291255116463 290.83737729489803 93.126265481114388 371.34874856472015 1491.3471845537424 314.88050054013729 222.89596001803875 1389.3794737905264 539.62296140193939 431.31458811461926 189.76871305704117 1175.7849254757166 329.06017670035362
leaf_count=614 4139 4247 6303 2861 1696 290 7242 16128 4828 2060 1058 1053 633 3369 1607 674 2117 968 4481 590 7144 1266 5115 734 3392 9877 5910 14324 2397 3043 6870 1446 4676 4489 1306 1823 400 319 1598 1197 6071 1555 995 3360 12490 1020 594 107 17323 4616 592 2184 3977 3944 744 3730 1833 1165 373 1488 5976 1270 911 5594 2192 1744 787 4722 1318
internal_value=0 -0.0197957 0.0217046 -0.00546851 0.0337884 -0.00304194 0.0021625 0.024736 -0.0415914 -0.00608693 0.0198753 -0.0474087 -0.0316619 0.0599543 0.0301556 -0.0220946 0.0314619 0.0164171 0.0376345 -0.0555613 -0.0473512 0.0539641 0.0678041 -0.0100121 0.0513588 0.0101982 -0.0638942 0.0258828 -0.0542736 0.0526148 -0.00043054 0.0918314 -0.0164865 0.0296259 0.0454121 -0.0503084 -0.0424647 0.000559565 -0.0232467 -0.0287146 0.0169548 -0.0561281 -0.0349737 -0.00318167 -0.00690716 -0.0570647 -0.0239008 -0.0552048 -0.0235225 0.0129542 0.0214549 -0.0114869 0.0438161 -0.0669979 0.0195832 -0.0624788 0.0478153 0.0368375 0.0448731 0.00424051 -0.00123293 -0.0146213 -0.0689267 0.0381149 0.0360592 -0.0386288 -0.082912 -0.0146995 -0.0118329
internal_weight=0 30569.9 28256.4 18445.1 18985.6 9270.78 15605.7 14105.6 12124.8 12177.1 4208.56 2839.45 8389.64 4880.02 3131.44 5062.21 3428.55 10747.4 2904.91 2426.97 2865.72 4108.05 1568.95 1077.12 3358.24 6486.03 3735.16 4261.32 751.289 1159.21 9741.89 771.973 4310.92 2213.51 2539.09 2165.76 2519.5 412.481 2736.77 2435.25 1972.23 1711.06 395.065 8080.92 5380.33 2691.2 747.289 170.868 5523.92 1660.97 329.834 3664.96 2356.43 1222.12 260.41 1315.99 696.04 456.378 383.964 2700.6 1862.7 576.42 318.98 1714.04 1521.54 2200.52 346.218 1573.26 627.884
internal_count=236959 123063 113896 74172 76622 37274 62749 56830 48891 48801 16904 11423 33770 19792 12549 20370 13948 43130 11831 9746 11619 16650 6381 4355 13700 26005 15121 17125 3071 4650 39044 3142 17299 8970 10269 8693 10199 1677 10996 9757 7899 6870 1585 32368 21544 10874 3029 701 22151 6676 1326 14674 9561 4964 1063 5285 2801 1828 1538 10824 7464 2328 1311 6900 6169 8888 1420 6320 2515
cat_boundaries=0 1 2 3 4 5 6 7 8 9 10 11 12 13
cat_threshold=6228652 19273368 181446784 84542514 251799895 151569100 134785056 208511080 35389457 1092752 1989331 9896068 158896259
is_linear=0
shrinkage=0.1


Tree=8
num_leaves=70
num_cat=39
split_feature=5 5 4 4 5 5 5 5 4 8 8 4 2 5 4 2 2 5 4 2 2 2 5 2 2 8 2 4 2 2 3 5 2 5 8 8 2 4 3 2 8 2 1 5 8 2 4 5 5 5 5 4 2 2 8 8 2 8 2 8 2 2 2 5 3 2 4 5 8
split_gain=1019.54 372.017 270.8 190.186 160.102 92.2348 66.232 65.8272 58.8632 51.7492 43.1548 38.6715 38.602 36.0322 32.7563 43.987 32.108 30.2874 30.0937 29.2447 28.1046 27.9769 26.2432 25.9093 24.0373 24.0101 22.6961 21.9756 21.7223 20.8481 20.0229 18.8775 18.8184 17.2818 16.545 16.3322 15.2741 14.7562 14.6539 14.6485 14.5628 14.5079 13.9715 13.9275 13.9163 12.4495 12.0137 12.9327 11.5975 24.0619 18.3825 12.9502 13.14 12.707 11.9711 11.5986 11.3875 11.2962 11.2019 11.1837 11.1803 10.92 10.8952 10.5655 10.5545 10.5265 10.3603 13.7744 10.2849
threshold=1564.7234902082316 1337.7904728777035 0 1 1722.7380931435689 1209.7693853659543 1936.8554745610729 1483.2840360251946 2 290.23316570051321 227.56780967932437 3 4 1203.5355506595104 5 6 7 931.19246872631459 8 9 10 11 1501.9619306286909 12 13 99.445002603751533 14 15 16 17 18 1499.999376272591 19 1648.1644098908603 69.454496468705983 199.22602609697097 20 21 22 23 156.15158745450051 24 25 1633.0130860950721 290.22537750246471 26 27 1051.6214951509976 1503.8839918208521 1499.999376272591 1438.0127301739037 28 29 30 153.11168711318763 100.02644724946438 31 54.835055522066753 32 41.0341139823338 33 34 35 1429.9254069710537 36 37 38 1594.0398987013998 57.574209458147486
decision_type=2 2 9 9 2 2 2 2 9 2 2 9 1 2 9 1 1 2 9 1 1 1 2 1 1 2 1 9 1 1 1 2 1 2 2 2 1 9 1 1 2 1 1 2 2 1 9 2 2 2 2 9 1 1 2 2 1 2 1 2 1 1 1 2 1 1 9 2 2
left_child=1 3 7 13 8 17 18 21 12 11 14 39 33 -1 28 -16 -10 -5 32 -9 -19 63 31 -15 37 65 -20 -8 -4 -12 -14 41 -6 42 -21 -18 -11 -13 -36 -7 -23 -17 -2 45 46 -32 47 -27 49 50 55 52 -52 -51 -54 61 -48 -25 -57 60 -28 -30 -35 -3 -64 -22 67 -47 -44
right_child=4 2 10 5 6 9 27 19 16 36 29 24 30 23 15 22 35 20 26 34 25 40 -24 57 -26 44 59 -29 48 -31 43 -33 -34 62 38 -37 -38 -39 -40 -41 -42 -43 68 -45 -46 66 56 -49 -50 53 51 -53 54 -55 -56 58 -58 -59 -60 -61 -62 -63 64 -65 -66 -67 -68 -69 -70
leaf_value=0.069955488022670362 0.022412721682693891 0.043614684964384101 0.0090093063595341003 0.070080938348793365 -0.03719179945870453 0.019337252606767601 -0.0041473104214640967 -0.0019081450598856459 -0.043923395429581506 -0.059001654835330535 -0.0056472523703108872 -0.0010643432336888534 -0.031368188912553829 0.026564447191071722 -0.020359694918568851 0.0076259610820098994 -0.011459912070187763 0.039649206169208903 -0.021214800068706928 0.028385262533029178 0.045594845755424988 0.024319869710097228 -0.019044314994860718 0.082075520731827667 0.020582173130863371 0.032691844766777993 0.021585029434913455 -0.068341331144956885 0.023199961954945923 -0.023561268965464292 -0.0087979562835137273 0.022598059111843455 0.0070734372074102774 -0.03339322923392337 -0.035101385863198178 -0.034984769368210981 -0.011272448695165983 0.015730552413113098 0.012427389773484834 -0.032442876530853003 0.0065771458073238661 -0.007918393196220775 0.0025614464184425863 -0.0077677813364152156 -0.015799348487132017 0.019797124163491657 -0.00067872304149677932 -0.010103675562995882 -0.0076322170521735781 0.026693283155765298 -0.023968091538845313 -0.013513033386924743 0.015700025694609307 0.0016010244137242787 -0.019586961203061425 -0.04972794577218094 0.03135428615721244 0.049209058634079754 -0.00053134875087796089 -0.036530477103769998 -0.032908980256070884 0.0039976710066136787 -0.039193213404731739 0.027907527760333402 -0.012903197994179522 0.017382920568461493 -0.0055508854074009101 0.0016408914205450096 -0.015138383841096502
leaf_weight=636.81005990505219 118.63869106769562 999.24674813449383 2902.0533741116524 186.5128668397665 117.83151584863663 64.927492946386337 71.841421604156494 1505.1890667378902 751.10476286709309 105.72794659435749 1236.1957331746817 1189.0674311369658 259.66489847004414 738.47184908390045 1852.0782884061337 1143.1978845745325 1038.2732997834682 1351.8371482789516 1964.3170340061188 726.23241813480854 402.90278668701649 1813.6296949982643 672.09842364490032 116.98095786571503 2767.8455176800489 95.751384288072586 65.177762910723686 555.2616955190897 451.07209686934948 1411.9724306315184 831.36167885363102 416.64476343989372 378.78812980651855 717.19083358347416 66.890088722109795 412.30689533054829 199.30408392846584 927.02575889229774 2147.4534088224173 247.99945178627968 620.99342224001884 1242.6895619630814 382.09178800880909 3123.3395107388496 159.27114456892014 735.44747231900692 150.99169208109379 268.98250019550323 2019.8101223558187 500.31956461071968 141.903434202075 1500.0448189526796 502.44288794696331 348.29980063438416 118.88857193291187 37.84968064725399 497.17923308908939 986.08633744716644 1439.1296679675579 3215.8649039119482 66.512144029140472 868.29591861367226 181.85490819811821 749.43036310374737 952.71223577857018 259.30132257938385 627.22560475766659 967.59416000545025 2331.6872917860746
leaf_count=2668 477 4066 11652 785 478 263 296 6054 3046 424 4960 4797 1044 3023 7442 4591 4186 5570 7957 2932 1654 7335 2701 484 11218 397 263 2317 1810 5667 3341 1675 1532 2898 269 1668 800 3746 8651 1001 2503 4989 1533 12564 646 2959 620 1090 8104 2011 569 6014 2014 1399 477 152 2042 4040 5785 13104 270 3483 734 3029 3845 1063 2517 3887 9378
internal_value=0 0.00955798 0.00325787 0.024782 -0.0182999 0.0178727 -0.0312685 0.0179129 -0.0120856 0.00991093 -0.00347457 0.0122606 -0.00912576 0.0492522 -0.00153699 -0.00794885 -0.0270171 0.0309137 -0.0279352 0.00946123 0.0286209 0.0269376 -0.00129406 0.0423604 0.0144337 0.0201676 -0.0301129 -0.0621431 0.00162248 -0.0153091 -0.00414952 0.00295815 -0.00395606 -0.0160548 0.0152355 -0.0180223 -0.0301198 0.00633261 0.0109917 -0.0214332 0.0197133 -0.000471542 -0.0111778 -0.00303158 0.0116784 0.00164726 0.0159991 0.00110099 -0.00108941 0.00114549 -0.00146807 -0.00816798 0.00248161 0.0167281 0.00880631 0.00395464 0.0239952 0.0522211 -0.00213237 -0.0352555 -0.00679796 0.0107688 -0.0236012 0.0366733 -0.0169676 0.0354988 0.0053884 0.00942619 -0.0126463
internal_weight=0 38787 27434.1 11353 19866.1 8874.63 6435.59 8629.07 13430.5 5501.9 18805 5196.87 11228.8 2478.35 16156.8 5326.71 2201.68 3372.73 5808.49 4445.76 3186.22 4183.3 3474.63 1841.54 4883.94 1834.38 5311.87 627.103 10830.1 2648.17 6544.63 2802.53 496.62 4684.18 2940.58 1450.58 305.032 2116.09 2214.34 312.927 2434.62 2385.89 2832.42 6284.97 1172.18 3161.63 1012.9 364.734 7928.06 5908.25 5059.63 2263.28 763.235 848.619 621.331 2796.35 648.171 1103.07 1476.98 3347.55 131.69 1319.37 1851.76 1748.68 1134.57 662.204 2330.27 1703.04 2713.78
internal_count=236959 156665 110334 46331 80294 36116 26217 34839 54077 22249 75495 21025 45177 10215 64868 21398 8900 13867 23604 17906 13082 16933 13956 7547 19761 7512 21594 2613 43470 10627 26312 11255 2010 18865 11852 5854 1224 8543 8920 1264 9838 9580 11388 25268 4795 12704 4149 1487 31818 23714 20304 9074 3060 3410 2491 11230 2662 4524 5937 13637 533 5293 7477 7095 4579 2717 9363 6846 10911
cat_boundaries=0 1 2 3 4 5 6 7 8 9 10 11 12 13 14 15 16 17 18 19 20 21 22 23 24 25 26 27 28 29 30 31 32 33 34 35 36 37 38 39
cat_threshold=1536 1536 1984 2 108462674 432 67327700 5642112 256 58065796 211615842 72345000 242722816 11556765 230744104 432 138453580 179053870 2 15795524 109122444 60 2 137234473 172269857 2 16781344 6 256 16844160 128454818 132121 131072 35133459 18432400 105971712 1 23073673 1600
is_linear=0
shrinkage=0.1


Tree=9
num_leaves=70
num_cat=42
split_feature=7 7 7 7 7 0 8 7 8 7 8 8 7 0 0 8 0 2 7 0 2 0 2 2 2 2 2 0 2 7 2 2 2 8 2 8 2 2 8 2 0 0 0 7 7 2 0 2 8 2 7 2 0 3 0 2 2 0 8 2 2 1 7 0 8 8 0 0 8
split_gain=2055.32 887.384 270.498 180.391 98.7135 75.8223 70.4381 51.4952 44.9365 72.5828 40.9818 40.9451 39.6183 39.3384 33.1246 31.2511 29.0288 28.8552 26.7033 25.5397 22.3585 21.1252 20.6437 20.4154 19.9118 18.8744 18.0014 17.7152 17.2364 16.8717 17.6755 16.1952 16.0276 15.5179 15.3867 15.3042 23.4168 13.9688 13.8037 15.1556 14.3379 13.4262 13.376 13.1249 13.1109 13.0657 12.6372 17.7701 12.6127 12.3271 11.9895 12.5592 11.9707 11.6533 11.5321 11.159 11.034 10.8324 11.9034 11.7813 10.6333 10.4197 10.2988 10.1211 12.2051 10.375 10.0342 9.98608 9.81621
threshold=1603.7105012605487 1348.9729393835419 1785.8168436597782 1190.2741289390844 1500.000053589818 0 103.01873331154131 1662.2117773152102 249.26006979027761 1442.9679861038678 278.05572723460483 209.32879820501083 995.73445575043172 1 2 205.4929706402196 3 4 1836.0995975443209 5 6 7 8 9 10 11 12 13 14 1945.5610188845242 15 16 17 233.96346705394674 18 63.384095926667889 19 20 197.153525600291 21 22 23 24 1487.2318897486382 1298.8622067686788 25 26 27 278.05572723460483 28 1718.4560569553789 29 30 31 32 33 34 35 44.312486154449594 36 37 38 1974.7649589743348 39 48.351518276584862 143.31630579112871 40 41 60.755267882514012
decision_type=2 2 2 2 2 1 2 2 2 2 2 2 2 1 1 2 1 1 2 1 1 1 1 1 1 1 1 1 1 2 1 1 1 2 1 2 1 1 2 1 1 1 1 2 2 1 1 1 2 1 2 1 1 1 1 1 1 1 2 1 1 1 2 1 2 2 1 1 2
left_child=1 3 7 12 8 11 18 16 13 -10 19 34 -1 28 26 20 45 61 41 37 -7 31 33 43 -16 -18 -14 -8 -3 30 -29 -9 66 -13 -5 36 -23 -6 56 40 -40 -4 -19 -15 -22 63 47 -25 50 -17 53 -52 -45 -33 -36 -43 -37 -34 59 -59 -46 -11 -20 64 -2 -66 68 -63 -21
right_child=2 4 6 5 10 15 27 21 9 17 -12 22 14 23 24 49 25 42 62 32 44 35 -24 46 -26 -27 -28 29 -30 -31 -32 48 57 -35 54 38 -38 -39 39 -41 -42 55 -44 52 60 -47 -48 -49 -50 -51 51 -53 -54 -55 -56 -57 -58 58 -60 -61 -62 67 -64 -65 65 -67 -68 -69 -70
leaf_value=-0.082737978121937214 0.050130293924801755 -0.025625626420923028 0.071511664405842626 -0.005418233061872918 0.018594962119278156 -0.046244965720592363 0.05624524731494196 0.035850130962613705 -0.049895850023119422 0.036036143391341167 0.05215455290936697 -0.048660338061944711 -0.056820396624623931 -0.011651610400894992 -0.079712711336233241 -0.035288179684184226 0.034776001098813979 -0.032242516730147212 0.076575049835901646 -0.021026501027181777 -0.032824597408379973 0.015688281498215589 -0.049946045148077149 -0.010034917860918001 -0.051546887042752211 0.01618238231169453 -0.027316878077157988 0.055584246468861342 -0.0095075644761672164 0.061223384791697845 0.026323048331132221 -0.046927794753794813 0.0081938875637370869 -0.0079101249623252778 -0.0037494422853731127 0.035122628073827517 0.057888908900790126 0.0062494213609801978 -0.0078594119203542478 0.047282830423512279 0.032720651091651391 0.00060258950976036451 -0.013229147730753897 -0.011660916325907952 -0.029397752084280415 0.014615529405195025 -0.0017315007482545418 0.011171726271670363 0.055068376028833993 -0.060418257120983511 0.034431331091257469 0.0089583674407950793 0.02930995267126868 0.008072834958082897 -0.024570078193889289 0.046998463925537567 0.021795820979876118 0.0018182408497412637 0.0004845197083125714 -0.051752812012617104 -0.0089159509904143779 -0.012464763359732019 0.10309714103536927 -0.0092756946638765415 -0.0040363322416722596 0.02295066207935487 -0.014597513684221347 0.0043628683157418847 0.0058145486624160986
leaf_weight=438.28602036833763 64.736541926860809 934.50286856293678 228.49159955978394 1724.6595701724291 1276.0185831338167 810.58652620017529 812.57980972528458 512.23520873486996 562.38534536957741 73.111671090126038 179.08133186399937 130.23929966986179 320.70071721076965 2449.8286766856909 458.26544417440891 462.06953424215317 926.48505210876465 578.74449482560158 676.42627881467342 171.70944057404995 1416.197862893343 215.43477070331573 486.21249827742577 491.56719961762428 1237.8092077076435 1497.3918993920088 821.70841087400913 278.52070859074593 2402.1979241967201 240.97255010902882 1147.146994099021 40.367843791842461 2228.7778340131044 330.80964155495167 369.90165673196316 1035.1635193675756 480.76358303427696 3334.5382395684719 115.83192494511604 796.89499907195568 351.36971943080425 82.106504708528519 1158.5900949090719 123.52666963636875 466.59466484189034 1507.3658902496099 6340.9853604584932 1898.4864758253098 76.773664578795433 652.62708050012589 412.17143112421036 402.428322955966 149.9199615418911 842.68353006243706 1105.8047471046448 179.34822006523609 2101.5136420428753 83.491920083761215 2678.0560649633408 79.39126843214035 607.19446770846844 594.18678015470505 186.85429951548576 551.23979887366295 444.53047031164169 209.6346378326416 1002.935322791338 839.94426408410072 659.83968745172024
leaf_count=1789 262 3772 937 6983 5152 3284 3311 2075 2296 294 748 528 1301 9888 1864 1876 3750 2334 2776 693 5735 875 1971 1983 5034 6060 3335 1133 9690 985 4662 163 9000 1337 1500 4203 1957 13471 470 3241 1428 333 4665 498 1886 6102 25587 7665 314 2655 1675 1629 605 3411 4472 733 8515 337 10818 321 2456 2395 770 2229 1795 847 4049 3385 2666
internal_value=0 -0.0115878 0.0301225 -0.0348015 -0.00251458 -0.0271658 0.0533829 0.0230391 -0.00704118 -0.0167301 0.00468454 -0.017312 -0.0547553 -0.0045474 -0.0504345 -0.0363008 0.0154178 -0.0109815 0.071733 0.00394627 -0.0314939 0.028408 -0.0356164 -0.00175528 -0.0595797 0.0234032 -0.0360204 0.0433669 -0.0140848 0.0365314 0.0326141 0.0200679 9.04645e-05 -0.0190091 -0.0119482 0.0320474 0.045887 0.00969902 0.0299308 0.038753 0.0227059 0.0530864 -0.0197112 -0.00929809 -0.0264001 0.00833485 0.000605325 0.00678647 0.0153365 -0.0508598 0.0136301 0.0223798 0.0114472 0.00555853 -0.0194115 0.0329874 0.0263754 0.00298946 -0.00110795 -0.0273586 -0.0181727 -0.000783123 0.0823157 0.000825186 0.00859134 0.00461196 -0.00789387 -0.00266562 0.000268815
internal_weight=0 42131.5 16417.5 11839.7 30291.8 8562.9 3832.45 12585 18598 3806.96 11693.8 4147.63 3276.77 14791 2838.48 4415.27 5201.38 3244.58 1353.23 11514.8 3300.57 7383.63 947.261 11454.3 1696.07 2423.88 1142.41 2479.22 3336.7 1666.64 1425.67 2286.66 6904.2 461.049 3200.37 5096.97 696.198 4610.56 4400.77 1264.1 467.202 489.946 1737.33 2723.28 2489.99 2777.51 8731.04 2390.05 1774.42 1114.7 1697.65 814.6 273.447 883.051 1475.71 261.455 3136.68 5069.72 2840.94 162.883 1073.79 1507.24 863.281 1270.14 718.902 654.165 1834.48 1434.13 831.549
internal_count=236959 170318 66641 48006 122312 34683 15640 51001 75057 15369 47255 16791 13323 59688 11534 17892 21045 13073 5549 46507 13361 29956 3836 46226 6898 9810 4636 10091 13462 6780 5795 9267 27884 1865 12955 20689 2832 18623 17857 5139 1898 2003 6999 10991 10077 11235 35235 9648 7192 4531 6878 3304 1103 3574 5972 1066 12718 20476 11476 658 4342 6074 3546 5133 2904 2642 7408 5780 3359
cat_boundaries=0 1 2 3 4 5 6 7 8 9 10 11 12 13 14 15 16 17 18 19 20 21 22 23 24 25 26 27 28 29 30 31 32 33 34 35 36 37 38 39 40 41 42
cat_threshold=103953105 4779048 3301328 143404263 204317742 102109722 75650096 201434433 254068025 19219732 2366620 136469296 29491606 34625046 71541893 8719440 8480005 9941264 255964769 3035159 27308097 72724288 14696578 84609638 190087240 45157285 33620564 67143880 59535596 202015400 94634374 2 1052800 124948160 501432 2180389 134759941 51151173 2 134742051 8972512 55329902
is_linear=0
shrinkage=0.1


Tree=10
num_leaves=70
num_cat=53
split_feature=7 7 7 4 7 7 4 7 7 4 7 4 0 7 0 7 4 2 2 4 2 2 2 0 0 2 0 0 2 0 0 2 7 2 4 2 0 0 0 0 2 0 2 0 2 0 0 2 7 2 0 0 2 2 0 0 2 0 7 2 7 2 0 7 0 4 7 0 0
split_gain=1726.14 705.014 252.115 167.379 140.887 138.174 87.1891 61.8754 45.4554 43.9424 36.1439 34.8957 33.3681 30.5478 30.5098 30.2802 28.903 28.2463 25.9376 24.9537 28.6682 27.0498 24.6227 24.6213 24.5181 24.3617 24.27 24.2174 24.0651 23.8318 23.75 25.7138 23.6778 23.6125 23.5941 23.5226 22.708 22.2018 21.7607 21.598 27.0969 21.3123 21.2603 20.0511 19.3699 19.0854 18.4749 17.5966 16.7857 16.928 16.1486 16.1338 15.8788 15.8517 15.6883 15.5021 15.3075 14.9187 14.7723 14.5715 14.5484 14.3526 13.9295 13.322 15.313 13.7393 12.6917 20.1725 12.5225
threshold=1597.1317672098285 1337.7883295856782 1813.0246636811678 0 1483.2993793825301 1156.3711885435664 1 1507.3782509850855 1651.8049037002795 2 1499.9990610339721 3 4 1904.9973092709354 5 1239.5660017236094 6 7 8 9 10 11 12 13 14 15 16 17 18 19 20 21 995.73445575043172 22 23 24 25 26 27 28 29 30 31 32 33 34 35 36 1469.7861535140926 37 38 39 40 41 42 43 44 45 1309.6627631479216 46 1378.0593163708668 47 48 1397.0556684453547 49 50 1500.000053589818 51 52
decision_type=2 2 2 9 2 2 9 2 2 9 2 9 1 2 1 2 9 1 1 9 1 1 1 1 1 1 1 1 1 1 1 1 2 1 9 1 1 1 1 1 1 1 1 1 1 1 1 1 2 1 1 1 1 1 1 1 1 1 2 1 2 1 1 2 1 9 2 1 1
left_child=1 5 8 4 14 16 28 10 30 38 27 22 33 39 17 68 32 -3 36 20 23 55 51 -10 -23 37 61 34 45 -22 52 50 -1 -6 59 -29 -17 -12 -4 -11 -41 -30 -36 -20 -18 -7 47 -15 -37 -50 -32 -8 57 -28 -34 -21 -14 -2 -43 -5 -19 -9 -24 -44 65 -65 -27 -68 -13
right_child=2 3 9 7 12 6 11 26 19 13 25 15 56 46 -16 18 44 60 43 21 29 24 62 -25 -26 66 53 35 41 -31 31 -33 54 -35 42 48 -38 -39 -40 40 -42 58 63 -45 -46 -47 -48 -49 49 -51 -52 -53 -54 -55 -56 -57 -58 -59 -60 -61 -62 -63 -64 64 -66 -67 67 -69 -70
leaf_value=-0.068492272719370278 0.020220744420589312 -0.007064892516145828 -0.011800955800593078 -0.0059264824076586779 -0.0074596029001790937 -0.0069861163057387743 0.03667878060498532 0.013166113179669193 0.042314988838501523 0.062102353417472292 -0.013514336807065304 -0.014817298312952669 -0.019410915937130666 -0.0015821593582860988 -0.039991280903045975 -0.023917645785130722 -0.031963507618168657 -0.049639861920696637 -0.01538428354320848 0.028145195381981337 0.00099739312598158178 0.034154635548097521 -0.0093482724750717418 0.019899139535725897 0.012513252172762588 -0.024013291892467516 0.006506041008160073 -0.013586230232805047 -0.022368311104315655 0.020342160067756063 -0.029640547495371386 0.012667828284099254 -0.050545911900726971 0.010600248324428824 0.01070330336844331 -0.0029279099021880259 0.005144788676477715 0.015195919124009272 0.036339869336190524 0.018233136524767133 0.056841108120890528 -0.069597580371033613 -0.0150280648852414 -0.031789463667054804 -0.074139788652632044 -0.04172430563278634 0.082509439174203725 0.05918768983366382 -0.012596770522566626 0.016982096952389378 0.0013582718824156556 -0.041428796666214629 0.025950242213843833 0.021596748731195936 -0.023988335426957691 0.047712077941664169 -0.0051094339725421128 -0.0071220982989858425 -0.043082598597333079 0.041014694576926886 -0.025069438385429743 -0.0016379553500793236 0.034045987403869521 0.032250176852956135 -0.0079813751532562087 0.0029123021521170146 0.024692857289725565 -0.022031721793775147 -0.038114714884150649
leaf_weight=294.40795786678791 451.42770250141621 865.75147086381912 130.92814159393311 89.586808115243912 1261.7401816099882 252.11127315461636 26.216160014271736 984.64784234762192 836.84445083141327 773.04551547765732 572.48007296025753 322.60725145041943 1474.7318702042103 68.596104487776756 1595.2639042288065 422.82231548428535 184.28941506147385 310.15420559048653 1551.2547794729471 841.8099177479744 1029.2580699026585 1021.3200030773878 108.68406821787357 1354.8265149593353 1148.9730468690395 1371.5757829099894 1117.7670549303293 1685.2282817959785 209.61576868593693 1696.9540105313063 248.41401778161526 1834.9998528957367 452.11956794559956 1673.4223028123379 2211.8958263546228 4351.2754196077585 705.37898206710815 491.04161143302917 313.37876954674721 429.59099046885967 354.82604669034481 718.05437633395195 663.42455139756203 1576.4416722357273 888.82112683355808 502.68897117674351 658.44383902847767 223.24105936288834 240.52968749403954 892.04391643404961 485.89906753599644 132.02678689360619 1626.0935099571943 1974.2007758617401 580.15250450372696 1124.3125663548708 1558.5267355591059 347.47970227897167 297.03944346308708 281.10560928285122 1080.5582005083561 1916.3678420931101 218.70225447416306 224.90489402413368 760.0382334291935 522.52414053678513 147.1378457993269 214.7264636605978 1536.9860363304615
leaf_count=1210 1830 3510 532 364 5106 1025 107 3973 3403 3184 2302 1309 5975 282 6491 1711 751 1259 6282 3434 4164 4157 443 5504 4679 5524 4519 6791 852 6882 1006 7428 1845 6771 8919 17537 2853 1975 1276 1757 1459 2938 2677 6394 3644 2046 2728 925 967 3591 1964 538 6586 7982 2361 4596 6311 1406 1211 1143 4383 7725 894 909 3062 2105 593 866 6245
internal_value=0 -0.0114488 0.0263816 -0.00363373 -0.0143787 -0.0331798 -0.0272474 0.00146688 0.0207994 0.0529473 -0.00201994 -0.021614 -0.00477116 0.0580737 -0.0293034 -0.0236738 -0.0543915 -0.0214749 -0.0190612 0.025024 0.0200396 0.030827 0.00427995 0.0286115 0.0228074 -0.0122508 0.0100334 0.000380162 -0.0456933 0.013069 0.0131405 0.00635292 -0.0431515 0.00283788 0.0059078 -0.00328861 -0.00586154 -0.000240372 0.0222063 0.0496842 0.0361929 -0.0548182 0.00382269 -0.0237279 -0.0672587 -0.0303644 0.072435 0.0453246 -0.000105101 0.010739 -0.00938579 -0.0270777 0.0202223 0.0161799 -0.0363422 0.0395192 -0.0121036 0.00838712 -0.0612354 0.0298125 -0.030331 0.00341473 0.0197901 -0.00320482 0.00197724 0.0120494 -0.0195057 -0.00295948 -0.0343577
internal_weight=0 41513.1 17000.7 30532.7 9820.15 10980.4 8580.63 20712.5 14048.6 2952.05 14719.5 6601.12 5968.42 2507.74 3851.73 6115.49 2399.79 2256.46 4255.9 9054.3 4917.88 4136.42 485.629 2191.67 2170.29 2796.96 5992.98 11922.6 1979.51 2726.21 4994.31 2569.31 1326.68 2935.16 4753.48 7169.08 1128.2 1063.52 444.307 1557.46 784.417 1224.71 4382.79 3127.7 1073.11 754.8 950.281 291.837 5483.85 1132.57 734.313 158.243 2425 3091.97 1032.27 1966.12 3033.26 798.907 1015.09 370.692 1390.71 2901.02 327.386 2170.89 1507.47 747.429 1733.44 361.864 1859.59
internal_count=237171 167989 69182 123330 39806 44659 34848 83524 57039 12143 59325 26776 24163 10335 15643 24794 9811 9152 17240 36819 19953 16866 1982 8907 8836 11260 24199 48065 8072 11046 20220 10398 5416 11877 19179 28886 4564 4277 1808 6400 3216 5001 17672 12676 4395 3071 3935 1207 22095 4558 2970 645 9822 12501 4206 8030 12286 3236 4149 1507 5642 11698 1337 8753 6076 3014 6983 1459 7554
cat_boundaries=0 1 2 3 4 5 6 7 8 9 10 11 12 13 14 15 16 17 18 19 20 21 22 23 24 25 26 27 28 29 30 31 32 33 34 35 36 37 38 39 40 41 42 43 44 45 46 47 48 49 50 51 52 53
cat_threshold=1536 1536 356 2 101123703 254872391 422 201646978 174137440 960 134819768 209814774 35783124 43933756 124519190 155823204 163915847 46371777 226798660 135144545 118739738 110182852 180472341 6 1203460 63518768 258670766 2269707 34310775 155867687 37749444 166863029 104012700 17352808 45393409 125867456 35754306 25428120 14683200 201457793 5060652 87564617 252455202 92663105 98445382 51532288 2388356 222314724 218908717 70081 72 235934820 14918784
is_linear=0
shrinkage=0.1


Tree=11
num_leaves=70
num_cat=52
split_feature=5 5 5 4 4 4 5 5 4 5 8 2 5 2 0 2 2 2 5 2 5 5 2 8 0 0 0 3 2 8 0 0 2 0 0 4 2 2 2 2 4 0 2 4 0 0 4 2 0 2 0 0 2 0 2 0 0 0 5 0 2 0 8 0 0 8 0 8 2
split_gain=946.307 282.152 226.174 163.595 104.156 71.9953 66.73 61.7374 50.9777 46.8821 43.3754 38.2358 38.2148 35.6728 34.9534 34.6351 33.3932 31.5945 29.4769 28.6682 28.5962 30.0357 28.5088 27.4359 28.9314 26.3036 24.2288 23.3527 22.8043 21.4939 20.9543 20.3979 20.3619 20.3477 20.0593 21.1251 34.016 19.528 19.409 18.8163 18.8148 18.7217 18.6665 18.5943 26.3471 19.6731 17.9771 17.5783 16.9172 16.3589 16.1589 16.1421 16.1213 16.0076 21.8023 15.8725 15.4212 15.1235 14.93 18.2438 14.8078 16.3366 14.7838 16.7389 14.5066 14.1154 13.5861 13.5336 13.4255
threshold=1503.8839918208521 1304.6017823397167 1722.7380931435689 0 1 2 1916.0494022235064 1087.5698429752531 3 1483.2840360251946 131.10463704446991 4 1568.932905408835 5 6 7 8 9 1116.7838920957549 10 1499.999376272591 1373.5857959877633 11 97.103697034368139 12 13 14 15 16 215.65529474603858 17 18 19 20 21 22 23 24 25 26 27 28 29 30 31 32 33 34 35 36 37 38 39 40 41 42 43 44 1167.5991529050784 45 46 47 284.31457985804462 48 49 47.692627494587875 50 44.312486154449594 51
decision_type=2 2 2 9 9 9 2 2 9 2 2 1 2 1 1 1 1 1 2 1 2 2 1 2 1 1 1 1 1 2 1 1 1 1 1 9 1 1 1 1 9 1 1 9 1 1 9 1 1 1 1 1 1 1 1 1 1 1 2 1 1 1 2 1 1 2 1 2 1
left_child=1 4 5 9 18 12 17 25 50 15 20 31 26 58 19 64 -12 43 -1 -14 21 30 -16 41 -25 -6 28 -17 -2 -13 37 -7 48 68 35 36 -23 -5 40 56 66 -15 -37 44 -4 65 60 -27 -11 51 -9 -20 -43 54 -8 -19 -28 -40 59 -10 -18 -62 63 -60 -3 -45 -36 -57 -22
right_child=2 3 6 10 7 11 53 8 13 32 16 29 14 23 22 27 46 55 49 -21 33 34 -24 24 -26 47 39 -29 -30 -31 -32 -33 -34 -35 38 42 -38 -39 57 -41 -42 52 -44 45 -46 -47 -48 -49 -50 -51 -52 -53 -54 -55 -56 67 -58 -59 62 -61 61 -63 -64 -65 -66 -67 -68 -69 -70
leaf_value=0.081210421191820703 0.02697303714420839 0.004491629244391177 0.042250254754742027 -0.024670215079283284 0.058833789977440404 -0.019938878361067992 -0.059053473951163282 0.018178285555879033 0.018228858270334155 -0.0015264963388427579 0.0034269142678157345 -0.022804000744759564 0.013497029484937065 0.0014985019641240527 -0.0044015613012735487 -0.018404756576657879 -0.0064556314804463241 -0.024907152878357111 0.025734114387362346 -0.0070037723725377716 0.022296010785496156 -0.040524732861175278 -0.018294891007060277 -0.014007979623235993 0.013324057543090276 0.0022084128607685848 -0.0055818012773302369 0.032973308516585254 0.0015924551506864314 -0.044396231850121995 0.019319766757821693 -0.0022210382147370422 -0.0051168312661077587 0.028995334292467284 -0.0178513787697985 0.0168750555167985 0.012343104753669558 0.0093794974804333169 -0.014706944287408161 -0.0001871156698750844 -0.028229798957506127 0.011206491777323913 -0.0004949448867768312 0.017035562343152035 -0.011974832932572753 -0.017966124484647454 -0.006693300816690867 0.039937583631600992 0.029248169748579939 0.031885222280266932 -0.021815668185306017 0.064226119303317467 0.044405608666606824 -0.063758529861235938 0.010765051659121122 -0.0046287144630795416 -0.042054395198982152 0.0074918537041815782 0.035332482122106511 0.059015548559388502 -0.004998205546512955 -0.03724573068446925 -0.0071221945530437238 0.016402792701342799 0.021690314445071475 -0.052925499398819568 0.0085608228592352221 -0.042791353975864303 -0.01467397429835883
leaf_weight=238.57704481482506 604.11288386583328 936.82391849160194 98.336114525794983 232.3749575316906 535.99796682596207 1195.0925685614347 80.707761868834496 126.08789114654064 217.25178560614586 302.55672317743301 2605.4798015356064 2140.4628297537565 982.8741155564785 262.32371990382671 2298.3050527721643 91.461622655391693 499.16621766984463 1372.0381661653519 193.87431310117245 2169.5424556285143 156.6600658595562 238.27662824094296 4238.0939676910639 579.06510289013386 1124.2391818463802 206.92612887918949 286.87470743060112 2702.1718985885382 852.19103486835957 587.57283329963684 1479.7924484461546 1432.4569669365883 948.44123436510563 749.12394845485687 382.93649904429913 1247.6092274487019 234.64838960766792 542.31468343734741 425.56550440192223 3366.9255503118038 633.47801697254181 245.63562554121017 1225.5526639521122 31.850591763854027 509.87094275653362 1561.8185204267502 3296.7084306925535 332.57756081223488 441.14811442792416 793.94364850223064 412.14198805391788 546.90255555510521 466.28378811478615 673.94753409922123 88.015880197286606 98.688438460230827 198.84143243730068 1029.3295778930187 1070.946993380785 302.19346737861633 229.3741353303194 611.94469186663628 137.89004524052143 943.43994733691216 1063.5854015648365 304.99876901507378 378.71931591629982 1591.390378266573 229.24226319789886
leaf_count=1035 2445 3804 398 938 2257 4830 336 513 898 1226 10521 8680 3969 1066 9279 372 2015 5619 804 8760 630 958 17133 2351 4581 856 1156 11099 3438 2400 5972 5788 3834 3017 1537 5011 942 2187 1708 13586 2546 1000 4921 129 2069 6354 13300 1389 1789 3303 1675 2297 1900 2842 364 401 801 4133 4380 1254 928 2479 556 3857 4326 1249 1519 6538 923
internal_value=0 0.0112958 -0.0142492 0.00546593 0.0265869 -0.00908971 -0.0306275 0.0209735 0.0169791 0.0188987 0.000150837 -0.0190341 -0.00552227 0.0199094 -0.00926251 0.0239788 -0.00563576 -0.0266591 0.0482382 -0.000589476 0.00471361 0.00261859 -0.013424 0.0116402 0.00402809 0.0430347 0.00129325 0.0311796 0.0122331 -0.0273543 0.0124124 -0.0103247 0.00461778 0.0195734 -0.00119083 0.00459021 -0.0145812 -0.00101825 -0.00715772 -0.00286635 -0.0155515 0.0250682 0.00830018 -0.0180729 -0.002666 -0.0229684 -0.0107121 0.0257701 0.0168742 0.0434269 -0.0122858 0.054629 0.0332647 -0.0568537 -0.0240677 -0.0335199 -0.02106 0.000942503 0.0281224 0.0434441 -0.0204728 -0.0286159 0.0245552 0.0267236 0.0136983 -0.0449752 -0.00477765 -0.0403243 0.00051836
internal_weight=0 31650.8 26765 22914.5 8736.3 20353.3 6411.66 6963 5887.5 6486.19 16428.3 5355.59 14997.8 5349.27 9688.82 4794.04 7242.67 5568.99 1773.3 3152.42 9185.62 8050.6 6536.4 2677.55 1703.3 1075.5 5308.95 2793.63 1456.3 2728.04 2254.48 2627.55 1692.15 1135.03 5796.12 2946.09 472.925 774.69 2850.03 3852.64 1395.13 974.243 2473.16 2506.87 608.207 1898.67 4637.19 539.504 743.705 1534.72 538.23 740.777 711.919 842.671 168.724 3062.12 485.716 1454.9 2671.72 519.445 1340.49 841.319 2152.28 2014.39 2000.41 336.849 761.656 1690.08 385.902
internal_count=237171 128607 108564 92635 35972 82265 26299 28533 24031 26450 66185 21698 60567 21843 39141 19601 29243 22757 7439 12729 36942 32372 26412 10898 6932 4502 21426 11471 5883 11080 9097 10618 6849 4570 23275 11832 1900 3125 11443 15543 5602 3966 9932 10199 2467 7732 18722 2245 3015 6404 2188 3101 2900 3542 700 12558 1957 5841 10945 2152 5422 3407 8793 8237 8130 1378 3056 6939 1553
cat_boundaries=0 1 2 3 4 5 6 7 8 9 10 11 12 13 14 15 16 17 18 19 20 21 22 23 24 25 26 27 28 29 30 31 32 33 34 35 36 37 38 39 40 41 42 43 44 45 46 47 48 49 50 51 52
cat_threshold=1536 1536 1920 2 195568699 239446118 39979692 37100039 216574248 239641769 142771640 145550592 153378827 84145104 43353184 2 145720424 88320013 921127 170662945 186844320 236396957 24 154016594 6970524 76786851 33686272 400 135643180 186230881 432 10502804 13780224 28 4931228 71483188 25325548 38077520 151626944 16778896 3613512 215054341 35448919 203956878 4227138 23268190 50413634 13269456 201333727 96219554 25697792 50029120
is_linear=0
shrinkage=0.1


Tree=12
num_leaves=70
num_cat=22
split_feature=7 5 7 5 7 5 7 5 5 5 7 7 8 4 7 6 7 5 5 5 5 7 8 7 4 6 0 5 5 7 0 7 6 8 5 6 0 7 5 5 7 7 8 4 0 7 8 8 0 8 7 7 4 7 0 0 0 0 0 4 4 0 0 0 8 0 0 8 0
split_gain=1417.54 770.266 476.712 326.876 259.6 223.088 188.718 134.107 128.573 115.45 106.441 105.365 80.4786 72.7073 63.6075 57.2185 48.1953 45.5157 44.0337 40.696 40.2073 36.37 33.4514 30.8321 30.1628 29.6127 29.5367 27.8935 27.1251 26.6235 25.0733 24.1678 32.4753 23.9516 22.3536 22.1141 22.0088 21.2101 20.9269 20.7267 20.4902 20.3913 20.3338 20.1943 22.4359 21.3148 20.0977 20.04 19.5875 19.3796 19.5074 18.8536 20.0515 18.841 18.4423 18.2897 18.2214 18.129 16.9503 16.9221 16.6947 20.0972 16.3457 16.2626 16.2495 16.2222 16.1225 15.8574 15.7176
threshold=1597.1317672098285 1500.0034592791237 1316.3220769731931 1695.7617483113529 1397.0556684453547 1209.7693853659543 1773.8900159603202 1403.1466652581016 1116.7838920957549 1689.1336906097974 1146.4361576995354 1827.7220791305124 106.07846159945332 0 1500.000053589818 75.824175831423545 1287.7279130699023 1898.9862801156403 1368.7284165106691 1695.7617483113529 1353.9074925593213 1096.1693641280524 179.61404117559707 1707.3530438410232 1 250.95948964180346 2 1602.9644303366488 1818.8030096056516 1855.2011344496934 3 1483.2993793825301 154.71656491441942 221.25253974529028 1371.2040340808683 143.43720248976987 4 2023.3126356515284 1203.5355506595104 1435.9479425621437 1211.2432499786137 995.73445575043172 94.804234723902184 5 6 1725.7539414535811 134.40578421188917 88.109102878537882 7 212.25735587581863 1387.8466791360104 1485.2089485685522 8 1298.8622067686788 9 10 11 12 13 14 15 16 17 18 227.56780967932437 19 20 63.384095926667889 21
decision_type=2 2 2 2 2 2 2 2 2 2 2 2 2 9 2 2 2 2 2 2 2 2 2 2 9 2 1 2 2 2 1 2 2 2 2 2 1 2 2 2 2 2 2 9 1 2 2 2 1 2 2 2 9 2 1 1 1 1 1 9 9 1 1 1 2 1 1 2 1
left_child=1 2 8 6 13 30 7 24 21 27 41 17 29 53 20 28 -15 43 33 42 22 63 55 67 -2 40 39 31 -11 -8 -4 32 66 54 -14 49 -29 56 -26 -16 -20 -10 -18 44 -5 -45 -21 -40 -27 50 -22 52 -17 -3 -12 -7 -13 -49 -24 -56 61 -36 -37 -1 -55 -53 -6 -9 -42
right_child=3 4 5 11 9 14 12 23 10 15 18 37 34 16 26 51 19 -19 25 46 35 -23 58 -25 38 48 -28 36 -30 -31 -32 -33 -34 -35 60 62 -38 -39 47 -41 68 -43 -44 45 -46 -47 -48 57 -50 -51 -52 65 -54 64 59 -57 -58 -59 -60 -61 -62 -63 -64 -65 -66 -67 -68 -69 -70
leaf_value=0.025652463589556907 0.030080613330380958 -0.040200528309504463 0.054925618098158893 -0.017725422565060427 -0.0055665043472150708 0.0024419602367674849 0.060968913379563665 0.024255928732740673 -0.078439263899485689 -0.047113042297614822 -0.018887839945360269 -0.0055703813979923796 0.061668247816476396 -0.066301453441577771 0.031463286514336934 -0.053654567197795461 -0.051595084020801887 -0.045731191236203797 -0.053974610400775107 -0.085207584995517713 -0.015022735315759587 0.035359849665163062 0.0065770117396395326 0.027195011818617932 0.078031238486366936 -0.027258700474905407 0.0076328143175031175 -0.0093712611892301147 -0.093519597635806168 0.09347765861289975 0.031058491739438643 -0.0018121891108180098 0.011030591315040826 -0.038311474419178343 0.037142978379028052 -0.0078238644195017231 -0.026707372025879236 0.075154279386118517 0.063903865866476742 0.012216230848930766 -0.042532768463514975 -0.046590103727626703 -0.025671768202840006 -0.021418253911561495 0.028215535681362394 0.0022617100883702175 -0.047432137142019937 0.017537561300680092 0.017795058627109249 -0.022550781197258674 0.00027811145199658891 -0.0062524302171763583 -0.022839559565899642 -0.016993785179149908 -0.006393449202339415 0.021779829873150844 0.032324492788832919 0.047267776918559108 -0.02322599926684854 0.019196700471422565 0.042222639900584752 -0.0048313470524526262 0.0092601303250227102 -0.031898072139739796 -0.04007951242966995 -0.027342831944545221 -0.028749414441191581 0.010053884588497757 -0.019878934427112936
leaf_weight=63.673108249902725 1561.1229131817818 1071.2000951766968 789.7617452442646 164.94577439129353 439.09273600578308 693.93755680322647 559.6591667085886 966.26359067857265 247.80886252224445 412.10981939733028 548.82508592307568 174.49483563005924 425.034323528409 1463.2712109833956 1348.5707762241364 452.14815211296082 433.09603400528431 387.12390270829201 420.14493870735168 265.26221857964993 1178.276132106781 443.30117036402225 396.14124010503292 2046.9304208755493 236.83005452156067 171.8242576867342 2526.2256935536861 1402.7827363461256 181.39390541613102 458.15081623196602 1303.7487107366323 3481.9368468075991 362.33687415719032 235.3305694013834 246.27719151973724 772.4935550391674 1614.3041839301586 86.986919119954109 450.30530515313148 956.22220428287983 533.39850634336472 1064.7878204137087 1004.0433739870787 1123.8803338110447 268.10508769750595 574.3901481628418 300.26555550098419 333.69681853055954 196.14946421980858 671.7483519166708 2845.4039971679449 554.96660487353802 495.7927043735981 1167.6754551976919 661.37522248923779 1756.6186662465334 476.6385352909565 771.31044915318489 354.66239495575428 411.09716658294201 1182.1446133852005 208.15443210303783 1976.9369988292456 148.89660780131817 412.64361351728439 1188.6055025011301 1081.9794817864895 4218.7595113664865 885.73695702850819
leaf_count=259 6428 4432 3342 664 1760 2806 2338 3907 1035 1696 2212 703 1820 6145 5487 1882 1753 1620 1709 1116 4720 1850 1595 8304 1034 689 10206 5652 803 1977 5445 13960 1454 951 1001 3097 6499 352 1892 3846 2151 4330 4096 4539 1080 2307 1264 1388 786 2697 11399 2258 2027 4731 2666 7111 1922 3211 1428 1657 4867 843 7935 600 1692 4856 4338 16985 3566
internal_value=0 -0.0103335 0.00150845 0.024021 -0.0260495 0.00983551 0.0308061 0.0244675 -0.0227462 -0.0173012 -0.0278453 -0.00444951 0.0525944 -0.0427346 0.00569137 -0.0331912 -0.052355 -0.0141874 -0.0198488 -0.0424263 0.00137291 0.0190532 0.0107446 0.016803 0.0409974 -0.0293956 0.0152081 -0.011074 -0.0612964 0.0756022 0.0404729 -0.00674827 -0.0158738 -0.00849906 0.0412355 -0.00265698 -0.0187666 0.0287759 0.0500597 0.0233766 -0.0345764 -0.052603 -0.033484 -0.00845792 0.0107119 -0.0133307 -0.0651508 0.0461223 -0.00349985 -0.0068275 -0.00420252 -0.0269938 -0.0383446 -0.0298493 -0.0041718 0.0164027 0.0225801 0.0388761 -0.007723 0.00350242 0.0359289 0.0182264 0.00446535 -0.0149532 -0.0230218 -0.0208226 -0.0222827 0.0127005 -0.0288334
internal_weight=0 41388 23603.1 16921.2 17784.9 17570.7 13664.6 10585.2 6032.35 11667.4 5376.48 3256.57 3079.42 6117.46 15477.2 3285.02 3465.94 2518.45 4063.88 2002.67 10646.2 655.871 3201.36 7231.95 3353.27 2207.25 4831.02 8382.43 593.504 1017.81 2093.51 5365.35 1883.41 1856.63 2061.61 7444.86 3017.09 738.12 1792.14 2304.79 1839.28 1312.6 1437.14 2131.32 433.051 1698.27 565.528 1555.31 367.974 4695.43 4023.68 2691.51 947.941 2651.52 1621.3 2450.56 651.133 1105.01 750.804 1072.47 1636.58 454.432 2749.43 212.57 1580.32 1743.57 1521.07 5185.02 1419.14
internal_count=237171 167989 95575 69182 72414 71114 55995 43149 24461 47185 21752 13187 12846 25229 62327 13522 14374 10210 16387 8229 42788 2709 12940 29196 13953 8901 19539 33663 2499 4315 8787 21512 7552 7486 8531 29848 12151 2977 7525 9333 7426 5365 5849 8590 1744 6846 2380 6491 1475 18816 16119 11023 3909 10855 6535 9917 2625 4599 3023 4323 6711 1844 11032 859 6423 7114 6098 20892 5717
cat_boundaries=0 1 2 3 4 5 6 7 8 9 10 11 12 13 14 15 16 17 18 19 20 21 22
cat_threshold=480 484 110769945 68129985 209143908 440 92736834 211920227 1544 3057785 94594072 176428296 18877121 19430195 1054 356 186474016 13171744 136337 33839638 170071560 105187366
is_linear=0
shrinkage=0.1


Tree=13
num_leaves=70
num_cat=36
split_feature=7 5 5 7 5 7 7 7 5 5 5 7 5 7 4 7 4 5 4 0 7 5 5 2 4 2 5 5 6 7 0 7 4 0 2 0 4 2 2 7 0 0 6 0 5 0 0 2 6 6 7 0 2 0 0 2 0 5 5 2 0 6 4 2 0 0 0 2 2
split_gain=1164.97 562.595 364.403 331.252 205.823 178.902 178.305 138.267 97.1024 92.0137 91.1781 77.8478 76.9438 56.2457 49.8917 46.9269 42.8558 41.4323 39.6144 39.429 37.6094 33.4671 33.3539 30.0028 29.0733 28.8875 26.8411 25.868 28.7609 24.5113 25.3117 23.7314 27.2571 23.3927 23.3403 26.6986 21.8834 21.7984 21.3398 21.1523 21.7038 21.1216 20.7776 20.7155 20.481 20.1728 20.0429 19.8963 19.706 19.6603 19.4481 19.4843 19.3598 19.1524 18.854 20.5112 18.6998 18.6995 18.6692 18.4532 19.352 18.4263 19.9697 19.3832 19.0752 17.7157 17.6717 17.5599 17.5478
threshold=1548.9650560745706 1500.0034592791237 1564.7234902082316 1255.2759609239097 1282.0735601373469 1779.7171546836923 1306.186876356837 1773.8900159603202 1351.3600162607049 1689.1336906097974 1795.5881921801329 1378.0593163708668 1087.5698429752531 1123.6104055361855 0 1683.2898682127402 1 1087.5698429752531 2 3 1467.7970217374875 1898.9862801156403 1882.640273234585 4 5 6 1394.4386995059813 1248.2672106901048 252.75548890294345 1904.9973092709354 7 1636.4266397510653 8 9 10 11 12 13 14 1481.3375772943555 15 16 343.30746971232418 17 1738.1328305883383 18 19 20 134.3739021984247 156.9343481113693 1135.5798278000493 21 22 23 24 25 26 1183.1170888855129 1427.8456429743121 27 28 141.56193219481932 29 30 31 32 33 34 35
decision_type=2 2 2 2 2 2 2 2 2 2 2 2 2 2 9 2 9 2 9 1 2 2 2 1 9 1 2 2 2 2 1 2 9 1 1 1 9 1 1 2 1 1 2 1 2 1 1 1 2 2 2 1 1 1 1 1 1 2 2 1 1 2 9 1 1 1 1 1 1
left_child=1 3 7 12 17 10 18 8 24 20 15 34 25 -14 22 33 23 -5 44 38 49 29 39 26 -2 -1 -9 45 -29 30 52 -21 48 -4 35 -6 -12 -23 -10 -11 -41 -28 -25 -16 50 -15 68 -35 -33 53 -3 -52 -7 -8 -17 -56 -36 65 -13 -51 -61 62 64 -63 -60 -26 -65 -38 -19
